{"learner":{"attributes":{"scikit_learn":"{\"n_estimators\": 100, \"objective\": \"reg:squarederror\", \"max_depth\": null, \"learning_rate\": null, \"verbosity\": null, \"booster\": null, \"tree_method\": null, \"gamma\": null, \"min_child_weight\": null, \"max_delta_step\": null, \"subsample\": null, \"colsample_bytree\": null, \"colsample_bylevel\": null, \"colsample_bynode\": null, \"reg_alpha\": null, \"reg_lambda\": null, \"scale_pos_weight\": null, \"base_score\": null, \"missing\": NaN, \"num_parallel_tree\": null, \"kwargs\": {}, \"random_state\": null, \"n_jobs\": null, \"monotone_constraints\": null, \"interaction_constraints\": null, \"importance_type\": \"gain\", \"gpu_id\": null, \"validate_parameters\": null, \"_estimator_type\": \"regressor\"}"},"feature_names":[],"feature_types":[],"gradient_booster":{"model":{"gbtree_model_param":{"num_trees":"100","size_leaf_vector":"0"},"tree_info":[0,0,0,0,0,0,0,0,0,0,0,0,0,0,0,0,0,0,0,0,0,0,0,0,0,0,0,0,0,0,0,0,0,0,0,0,0,0,0,0,0,0,0,0,0,0,0,0,0,0,0,0,0,0,0,0,0,0,0,0,0,0,0,0,0,0,0,0,0,0,0,0,0,0,0,0,0,0,0,0,0,0,0,0,0,0,0,0,0,0,0,0,0,0,0,0,0,0,0,0],"trees":[{"base_weights":[1.1921737E2,7.018247E1,1.8814302E2,5.174423E-1,8.823538E1,1.5753885E2,2.2804538E2,-8.8172865E-1,3.487878E1,7.1963295E1,1.0687906E2,1.6183066E2,8.8987854E1,1.7756924E2,2.7429626E2,-5.9204392E0,1.1678364E0,1.3135187E1,4.382181E1,6.2268906E1,8.1813774E1,9.352076E1,1.1726322E2,1.4742146E2,1.8083679E2,1.3123537E1,9.095787E1,1.4871597E2,2.0691466E2,2.448586E2,3.2064172E2,-1.0829032E1,-4.6049747E0,2.7503675E-1,8.375579E0,9.434799E0,3.92462E1,1.5465739E0,4.789289E1,5.5846622E1,6.763491E1,7.208068E1,8.5836426E1,8.425563E1,9.865678E1,1.2026491E2,8.165821E1,1.3100766E2,1.5925433E2,1.3986528E2,1.9815134E2,-2.044403E0,2.546233E1,8.7057085E0,9.119904E1,4.9538406E1,1.52599E2,1.6547995E2,2.3862767E2,2.198062E2,2.7825952E2,2.865604E2,3.7432193E2,-8.978576E0,-1.3048941E1,-3.602257E0,-6.4700465E0,-5.741259E-1,2.497328E0,7.1105304E0,3.0617294E1,2.2069592E1,8.382624E0,5.015654E1,4.34345E0,-3.3569856E0,2.5591972E0,4.8843037E1,1.1520244E1,1.9149057E1,5.7353188E1,1.624916E1,6.807629E1,7.303047E1,4.135518E1,7.975442E1,9.108055E1,7.62605E1,8.847267E1,8.832128E1,1.04721405E2,1.0990526E2,1.2848242E2,1.7299606E1,8.336251E1,1.0670992E2,1.4028026E2,1.3656975E2,1.8179614E2,1.1604123E2,1.480224E2,1.7172668E2,2.143865E2,-4.268908E0,-2.2066581E-1,1.5616525E1,4.3230366E1,8.894894E1,1.01354576E2,1.5549394E2,1.3522116E0,1.4290921E2,1.8057549E2,1.5558598E2,2.0671114E2,2.2022E2,2.6517865E2,1.7229259E2,2.4140775E2,2.4342871E2,3.2210135E2,2.438341E2,3.2137418E2,3.3545117E2,4.1358847E2],"categories":[],"categories_nodes":[],"categories_segments":[],"categories_sizes":[],"default_left":[true,true,true,true,true,true,true,true,true,true,true,true,true,true,true,true,true,true,true,true,true,true,true,true,true,true,true,true,true,true,true,true,true,true,true,true,true,true,true,true,true,true,true,true,true,true,true,true,true,true,true,true,true,false,true,true,true,true,true,true,true,true,true,false,false,false,false,false,false,false,false,false,false,false,false,false,false,false,false,false,false,false,false,false,false,false,false,false,false,false,false,false,false,false,false,false,false,false,false,false,false,false,false,false,false,false,false,false,false,false,false,false,false,false,false,false,false,false,false,false,false,false,false,false,false],"id":0,"left_children":[1,3,5,7,9,11,13,15,17,19,21,23,25,27,29,31,33,35,37,39,41,43,45,47,49,51,53,55,57,59,61,63,65,67,69,71,73,75,77,79,81,83,85,87,89,91,93,95,97,99,101,103,105,-1,107,109,111,113,115,117,119,121,123,-1,-1,-1,-1,-1,-1,-1,-1,-1,-1,-1,-1,-1,-1,-1,-1,-1,-1,-1,-1,-1,-1,-1,-1,-1,-1,-1,-1,-1,-1,-1,-1,-1,-1,-1,-1,-1,-1,-1,-1,-1,-1,-1,-1,-1,-1,-1,-1,-1,-1,-1,-1,-1,-1,-1,-1,-1,-1,-1,-1,-1,-1],"loss_changes":[1.6155296E8,3.513133E7,2.4230144E7,2.7647572E5,6.722592E6,3.295136E6,2.008224E7,5.707483E4,4.317647E4,1.12642E6,1.422936E6,2.872192E6,9.8193E4,3.46276E6,6.058112E6,1.0268543E4,2.5281088E4,6.1033193E3,2.729075E4,2.0217E5,2.23796E5,2.0706E5,6.11336E5,1.14952E6,3.207168E6,3.4208284E3,1.20605E4,7.95012E5,2.645056E6,2.244144E6,3.08336E6,1.2671836E3,2.3368105E3,6.600576E3,1.1965553E4,6.1263965E2,2.8285557E3,8.3073074E1,4.4484375E3,1.49615E5,7.2627E4,4.7291E4,1.25132E5,4.7906E4,1.729E5,4.42008E5,4.8465E4,5.55052E5,1.763368E6,2.4673E5,1.337304E6,3.5570217E1,1.0742983E3,0E0,5.7465E3,4.0823725E5,5.1772E5,3.30496E5,5.061E5,1.57904E6,1.71892E6,1.514712E6,8.9E5,0E0,0E0,0E0,0E0,0E0,0E0,0E0,0E0,0E0,0E0,0E0,0E0,0E0,0E0,0E0,0E0,0E0,0E0,0E0,0E0,0E0,0E0,0E0,0E0,0E0,0E0,0E0,0E0,0E0,0E0,0E0,0E0,0E0,0E0,0E0,0E0,0E0,0E0,0E0,0E0,0E0,0E0,0E0,0E0,0E0,0E0,0E0,0E0,0E0,0E0,0E0,0E0,0E0,0E0,0E0,0E0,0E0,0E0,0E0,0E0,0E0,0E0],"parents":[2147483647,0,0,1,1,2,2,3,3,4,4,5,5,6,6,7,7,8,8,9,9,10,10,11,11,12,12,13,13,14,14,15,15,16,16,17,17,18,18,19,19,20,20,21,21,22,22,23,23,24,24,25,25,26,26,27,27,28,28,29,29,30,30,31,31,32,32,33,33,34,34,35,35,36,36,37,37,38,38,39,39,40,40,41,41,42,42,43,43,44,44,45,45,46,46,47,47,48,48,49,49,50,50,51,51,52,52,54,54,55,55,56,56,57,57,58,58,59,59,60,60,61,61,62,62],"right_children":[2,4,6,8,10,12,14,16,18,20,22,24,26,28,30,32,34,36,38,40,42,44,46,48,50,52,54,56,58,60,62,64,66,68,70,72,74,76,78,80,82,84,86,88,90,92,94,96,98,100,102,104,106,-1,108,110,112,114,116,118,120,122,124,-1,-1,-1,-1,-1,-1,-1,-1,-1,-1,-1,-1,-1,-1,-1,-1,-1,-1,-1,-1,-1,-1,-1,-1,-1,-1,-1,-1,-1,-1,-1,-1,-1,-1,-1,-1,-1,-1,-1,-1,-1,-1,-1,-1,-1,-1,-1,-1,-1,-1,-1,-1,-1,-1,-1,-1,-1,-1,-1,-1,-1,-1],"split_conditions":[2.297089E1,4.52794E0,4.0181885E1,8.352182E0,1.5824978E1,4.15E1,8.285E-2,3.2782176E0,2.499295E3,5.259577E0,5.709915E0,3.0460499E1,1.815E-2,5.395E-2,5.8459282E1,2.7148414E0,4.008338E0,1.2578917E1,4.084115E0,1.1505458E1,1.2301088E1,5.374652E0,4.15E1,1.0806951E3,1.0085E-1,1.536E-2,1.7283611E3,6.277873E0,7.73013E0,1.442E-1,1.2315E-1,3.39545E0,1.9769E0,3.6091247E0,4.0125698E3,2.75E1,4.55E1,8.467266E0,5.5E0,1.60491E3,1.792E-1,4.4E1,5.526783E0,2.001385E3,1.682105E3,1.3709099E3,2.74E-2,6.2809896E0,6.078557E0,6.9365215E0,6.4277706E0,2.8167547E1,5.35E1,2.6117127E0,1.282175E3,6.2682266E0,8.216035E1,7.190386E1,8.4446E0,6.948094E0,6.8979273E0,7.729703E0,7.464725E0,-2.6935728E0,-3.9146824E0,-1.0806772E0,-1.941014E0,-1.7223777E-1,7.4919844E-1,2.1331592E0,9.185188E0,6.6208777E0,2.5147872E0,1.5046963E1,1.303035E0,-1.0070957E0,7.677592E-1,1.4652911E1,3.4560733E0,5.7447176E0,1.7205957E1,4.874748E0,2.0422886E1,2.1909142E1,1.2406554E1,2.3926327E1,2.7324167E1,2.287815E1,2.6541803E1,2.6496386E1,3.1416422E1,3.297158E1,3.8544727E1,5.1898823E0,2.5008755E1,3.2012978E1,4.208408E1,4.0970924E1,5.4538845E1,3.481237E1,4.4406723E1,5.151801E1,6.4315956E1,-1.2806724E0,-6.619975E-2,4.6849575E0,1.29691105E1,2.6684683E1,3.0406374E1,4.6648186E1,4.056635E-1,4.2872765E1,5.417265E1,4.6675797E1,6.2013344E1,6.6066E1,7.95536E1,5.168778E1,7.2422325E1,7.302862E1,9.663041E1,7.315024E1,9.6412254E1,1.0063535E2,1.24076546E2],"split_indices":[11,12,11,11,11,7,4,12,2,12,12,11,4,4,11,12,12,11,12,11,11,12,7,2,4,3,0,12,12,4,4,4,4,12,2,5,7,11,9,2,4,8,12,2,2,2,4,12,12,12,12,11,8,0,2,12,11,11,12,12,12,12,12,0,0,0,0,0,0,0,0,0,0,0,0,0,0,0,0,0,0,0,0,0,0,0,0,0,0,0,0,0,0,0,0,0,0,0,0,0,0,0,0,0,0,0,0,0,0,0,0,0,0,0,0,0,0,0,0,0,0,0,0,0,0],"split_type":[0,0,0,0,0,0,0,0,0,0,0,0,0,0,0,0,0,0,0,0,0,0,0,0,0,0,0,0,0,0,0,0,0,0,0,0,0,0,0,0,0,0,0,0,0,0,0,0,0,0,0,0,0,0,0,0,0,0,0,0,0,0,0,0,0,0,0,0,0,0,0,0,0,0,0,0,0,0,0,0,0,0,0,0,0,0,0,0,0,0,0,0,0,0,0,0,0,0,0,0,0,0,0,0,0,0,0,0,0,0,0,0,0,0,0,0,0,0,0,0,0,0,0,0,0],"sum_hessian":[4.7803E4,2.7933E4,1.987E4,5.749E3,2.2184E4,1.1248E4,8.622E3,5.525E3,2.24E2,1.1848E4,1.0336E4,1.0584E4,6.64E2,4.125E3,4.497E3,1.597E3,3.928E3,6.6E1,1.58E2,5.975E3,5.873E3,4.525E3,5.811E3,6.025E3,4.559E3,1.7E1,6.47E2,2.083E3,2.042E3,2.754E3,1.743E3,3.36E2,1.261E3,3.496E3,4.32E2,5.9E1,7E0,1.4E1,1.44E2,2.725E3,3.25E3,1.723E3,4.15E3,1.62E3,2.905E3,5.357E3,4.54E2,2.529E3,3.496E3,1.357E3,3.202E3,8E0,9E0,2E0,6.45E2,7.9E1,2.004E3,8.88E2,1.154E3,1.578E3,1.176E3,1.07E3,6.73E2,1.86E2,1.5E2,8.22E2,4.39E2,2.53E3,9.66E2,4.1E2,2.2E1,3E0,5.6E1,5E0,2E0,2E0,1.2E1,1.4E2,4E0,1.08E2,2.617E3,2.8E1,3.222E3,1.67E3,5.3E1,1.929E3,2.221E3,5.66E2,1.054E3,1.08E3,1.825E3,2.376E3,2.981E3,1.2E1,4.42E2,7.02E2,1.827E3,1.746E3,1.75E3,3.5E2,1.007E3,1.223E3,1.979E3,3E0,5E0,7E0,2E0,5.36E2,1.09E2,2.4E1,5.5E1,1.493E3,5.11E2,7.2E2,1.68E2,6.87E2,4.67E2,4.96E2,1.082E3,6.59E2,5.17E2,4.84E2,5.86E2,3.43E2,3.3E2],"tree_param":{"num_deleted":"0","num_feature":"13","num_nodes":"125","size_leaf_vector":"0"}},{"base_weights":[8.3492226E1,5.174699E1,1.3626842E2,2.8188815E0,6.469873E1,1.1776973E2,1.65838E2,-7.207842E-1,2.8308208E1,5.3394165E1,8.148983E1,8.7740425E1,1.2731518E2,1.3632474E2,2.2029497E2,-3.9144328E0,8.3513594E-1,1.1146165E1,3.3949535E1,4.6806335E1,6.1263363E1,7.2012596E1,9.0321365E1,7.1351616E1,9.884153E1,1.1216402E2,1.5509795E2,1.1003394E2,1.6064673E2,1.9492642E2,2.5817297E2,-2.8618255E0,-7.30824E0,2.2198778E-2,3.9859092E0,5.8528204E0,3.2165524E1,9.92507E0,3.5494015E1,4.0704487E1,5.066534E1,4.6792656E1,6.2734676E1,5.986051E1,7.6504486E1,7.468871E1,9.85522E1,5.5587547E1,7.814448E1,8.513192E1,1.26996254E2,9.193109E1,1.27299286E2,1.4065956E2,1.790047E2,8.995003E1,1.24287636E2,1.21272095E2,1.7677217E2,1.6757306E2,2.2323404E2,2.3461133E2,2.8733902E2,-4.2526546E0,-1.9860847E0,-6.5307117E0,-1.0013709E1,-3.667887E-1,9.596283E-1,3.3178134E0,1.5572222E1,2.1935907E1,4.0751286E0,1.0977039E1,3.93408E1,1.8955746E0,2.8001598E1,3.3531025E1,4.4767918E1,1.02109165E1,4.1337795E1,8.304532E0,5.104527E1,2.9133923E1,4.9547768E1,5.983477E1,6.888723E1,4.6660847E1,6.354858E1,6.712058E1,8.3523224E1,6.259613E1,8.344197E1,1.0809446E2,8.034251E1,2.5888914E1,5.8050503E1,6.584863E1,8.7177925E1,7.733685E1,9.3618706E1,1.1942644E2,1.6523053E2,7.360053E1,1.0099003E2,1.08046364E2,1.459209E2,1.3096063E2,1.7497789E2,2.0415102E2,1.6066585E2,7.36158E1,1.2399805E2,1.0186783E2,1.5010912E2,9.661834E1,1.279027E2,1.6213E2,2.005405E2,1.3296756E2,1.7852374E2,2.0609064E2,3.0379105E2,2.1570428E2,2.730295E2,2.6850708E2,3.3526257E2],"categories":[],"categories_nodes":[],"categories_segments":[],"categories_sizes":[],"default_left":[true,true,true,true,true,true,true,true,true,true,true,true,true,true,true,true,true,true,true,true,true,true,true,true,true,true,true,true,true,true,true,true,true,true,true,true,true,true,true,true,true,true,true,true,true,true,true,true,true,true,true,true,true,true,true,true,true,true,true,true,true,true,true,false,false,false,false,false,false,false,false,false,false,false,false,false,false,false,false,false,false,false,false,false,false,false,false,false,false,false,false,false,false,false,false,false,false,false,false,false,false,false,false,false,false,false,false,false,false,false,false,false,false,false,false,false,false,false,false,false,false,false,false,false,false,false,false],"id":1,"left_children":[1,3,5,7,9,11,13,15,17,19,21,23,25,27,29,31,33,35,37,39,41,43,45,47,49,51,53,55,57,59,61,63,65,67,69,71,73,75,77,79,81,83,85,87,89,91,93,95,97,99,101,103,105,107,109,111,113,115,117,119,121,123,125,-1,-1,-1,-1,-1,-1,-1,-1,-1,-1,-1,-1,-1,-1,-1,-1,-1,-1,-1,-1,-1,-1,-1,-1,-1,-1,-1,-1,-1,-1,-1,-1,-1,-1,-1,-1,-1,-1,-1,-1,-1,-1,-1,-1,-1,-1,-1,-1,-1,-1,-1,-1,-1,-1,-1,-1,-1,-1,-1,-1,-1,-1,-1,-1],"loss_changes":[8.008339E7,1.8916528E7,9.80128E6,5.638283E5,4.47588E6,3.155664E6,1.1070912E7,2.7273482E4,7.3395875E4,7.28556E5,7.88212E5,4.78348E5,3.510512E6,2.848312E6,2.28084E6,6.402164E3,9.453969E3,2.0951654E4,2.0909062E4,1.78874E5,1.33882E5,2.45696E5,6.24536E5,1.11413E5,6.02141E5,1.650216E6,9.94816E5,6.06306E5,1.455416E6,1.090756E6,5.99172E5,1.6650938E3,8.2862305E2,1.0705948E3,5.8080947E3,4.2849956E3,5.345418E3,5.172155E3,8.2929375E3,5.7166E4,7.5267E4,2.76015E4,9.9896E4,5.7497E4,2.1464E5,1.74509E5,5.49786E5,2.2562312E4,7.78985E4,6.36125E4,1.301905E5,3.78812E5,1.096364E6,5.9186E5,4.7862E5,4.908485E5,7.1356E5,9.8638E4,5.41024E5,2.58584E5,9.2206E5,3.34798E5,2.97148E5,0E0,0E0,0E0,0E0,0E0,0E0,0E0,0E0,0E0,0E0,0E0,0E0,0E0,0E0,0E0,0E0,0E0,0E0,0E0,0E0,0E0,0E0,0E0,0E0,0E0,0E0,0E0,0E0,0E0,0E0,0E0,0E0,0E0,0E0,0E0,0E0,0E0,0E0,0E0,0E0,0E0,0E0,0E0,0E0,0E0,0E0,0E0,0E0,0E0,0E0,0E0,0E0,0E0,0E0,0E0,0E0,0E0,0E0,0E0,0E0,0E0,0E0,0E0,0E0],"parents":[2147483647,0,0,1,1,2,2,3,3,4,4,5,5,6,6,7,7,8,8,9,9,10,10,11,11,12,12,13,13,14,14,15,15,16,16,17,17,18,18,19,19,20,20,21,21,22,22,23,23,24,24,25,25,26,26,27,27,28,28,29,29,30,30,31,31,32,32,33,33,34,34,35,35,36,36,37,37,38,38,39,39,40,40,41,41,42,42,43,43,44,44,45,45,46,46,47,47,48,48,49,49,50,50,51,51,52,52,53,53,54,54,55,55,56,56,57,57,58,58,59,59,60,60,61,61,62,62],"right_children":[2,4,6,8,10,12,14,16,18,20,22,24,26,28,30,32,34,36,38,40,42,44,46,48,50,52,54,56,58,60,62,64,66,68,70,72,74,76,78,80,82,84,86,88,90,92,94,96,98,100,102,104,106,108,110,112,114,116,118,120,122,124,126,-1,-1,-1,-1,-1,-1,-1,-1,-1,-1,-1,-1,-1,-1,-1,-1,-1,-1,-1,-1,-1,-1,-1,-1,-1,-1,-1,-1,-1,-1,-1,-1,-1,-1,-1,-1,-1,-1,-1,-1,-1,-1,-1,-1,-1,-1,-1,-1,-1,-1,-1,-1,-1,-1,-1,-1,-1,-1,-1,-1,-1,-1,-1,-1],"split_conditions":[2.4829252E1,4.689253E0,4.5538185E1,4.333784E0,1.7410044E1,9.285E-2,1.0025E-1,3.3343973E0,2.56779E3,5.380035E0,5.890601E0,7.1618347E0,6.64711E0,5.935E-2,7.4633565E0,2.5485501E0,3.819237E0,1.100528E1,6.79521E0,5.0450115E0,1.1047636E1,1.4775049E3,1.6525E-1,6.5568867E0,6.115E-2,1.18954E3,1.6049999E-1,8.192432E0,7.4451685E0,1.4695E-1,1.2755E-1,3.0286183E0,4.0768E0,3.535302E0,8.83931E0,8.141924E2,1.8722151E3,4.1855E3,1.2344129E1,1.412815E3,1.6625E-1,2.8055001E-2,5.800097E0,1.6705E-1,5.524333E0,6.3531466E0,1.5362905E3,3.87E-2,6.895E-2,3.765E-2,7.9890757E0,6.181697E0,6.1305437E0,7.290962E0,1.165718E3,2.5E0,4.085E-2,6.861745E0,8.065659E1,6.836589E0,2.85E1,8.104002E0,8.020607E0,-1.2757964E0,-5.9582543E-1,-1.9592136E0,-3.004113E0,-1.1003661E-1,2.878885E-1,9.9534404E-1,4.6716666E0,6.5807724E0,1.2225386E0,3.293112E0,1.180224E1,5.686724E-1,8.40048E0,1.0059308E1,1.3430376E1,3.063275E0,1.240134E1,2.4913597E0,1.5313581E1,8.740177E0,1.4864331E1,1.7950432E1,2.066617E1,1.3998255E1,1.9064575E1,2.0136175E1,2.5056969E1,1.877884E1,2.5032593E1,3.242834E1,2.4102753E1,7.7666745E0,1.7415152E1,1.9754591E1,2.615338E1,2.3201057E1,2.8085613E1,3.5827934E1,4.956916E1,2.208016E1,3.029701E1,3.241391E1,4.377627E1,3.9288193E1,5.249337E1,6.1245308E1,4.8199757E1,2.208474E1,3.7199417E1,3.056035E1,4.5032738E1,2.8985502E1,3.837081E1,4.8639004E1,6.016215E1,3.989027E1,5.3557125E1,6.1827194E1,9.1137314E1,6.471129E1,8.190886E1,8.0552124E1,1.0057877E2],"split_indices":[11,12,11,12,11,4,4,12,2,12,12,12,12,4,12,4,12,11,11,12,11,2,4,12,4,2,4,12,12,4,4,12,4,12,11,1,2,2,11,2,4,3,12,4,12,12,1,4,4,4,12,12,12,12,1,9,4,12,11,12,8,12,12,0,0,0,0,0,0,0,0,0,0,0,0,0,0,0,0,0,0,0,0,0,0,0,0,0,0,0,0,0,0,0,0,0,0,0,0,0,0,0,0,0,0,0,0,0,0,0,0,0,0,0,0,0,0,0,0,0,0,0,0,0,0,0,0],"split_type":[0,0,0,0,0,0,0,0,0,0,0,0,0,0,0,0,0,0,0,0,0,0,0,0,0,0,0,0,0,0,0,0,0,0,0,0,0,0,0,0,0,0,0,0,0,0,0,0,0,0,0,0,0,0,0,0,0,0,0,0,0,0,0,0,0,0,0,0,0,0,0,0,0,0,0,0,0,0,0,0,0,0,0,0,0,0,0,0,0,0,0,0,0,0,0,0,0,0,0,0,0,0,0,0,0,0,0,0,0,0,0,0,0,0,0,0,0,0,0,0,0,0,0,0,0,0,0],"sum_hessian":[4.7803E4,2.985E4,1.7953E4,6.248E3,2.3602E4,1.1047E4,6.906E3,5.487E3,7.61E2,1.4108E4,9.494E3,2.667E3,8.38E3,4.481E3,2.425E3,1.797E3,3.69E3,1.89E2,5.72E2,7.683E3,6.425E3,4.584E3,4.91E3,1.08E3,1.587E3,5.426E3,2.954E3,2.156E3,2.325E3,1.456E3,9.69E2,1.373E3,4.24E2,2.934E3,7.56E2,1.52E2,3.7E1,3.5E1,5.37E2,2.981E3,4.702E3,5.96E2,5.829E3,1.241E3,3.343E3,1.697E3,3.213E3,3.28E2,7.52E2,1.07E3,5.17E2,2.325E3,3.101E3,1.846E3,1.108E3,8.98E2,1.258E3,6.78E2,1.647E3,7.44E2,7.12E2,5.41E2,4.28E2,5.29E2,8.44E2,3.32E2,9.2E1,2.074E3,8.6E2,7.16E2,4E1,1.4E1,1.38E2,1E1,2.7E1,2.5E1,1E1,4.47E2,9E1,6.1E1,2.92E3,4.2E1,4.66E3,8.2E1,5.14E2,3.969E3,1.86E3,2.74E2,9.67E2,1.435E3,1.908E3,7.16E2,9.81E2,2.105E3,1.108E3,2.6E1,3.02E2,3.22E2,4.3E2,5.63E2,5.07E2,4.35E2,8.2E1,7.72E2,1.553E3,1.528E3,1.573E3,1.443E3,4.03E2,4.63E2,6.45E2,6.09E2,2.89E2,6.76E2,5.82E2,1.47E2,5.31E2,1.024E3,6.23E2,1.82E2,5.62E2,5.9E2,1.22E2,3.67E2,1.74E2,3.12E2,1.16E2],"tree_param":{"num_deleted":"0","num_feature":"13","num_nodes":"127","size_leaf_vector":"0"}},{"base_weights":[5.848119E1,3.1756638E1,8.970931E1,5.598972E-1,4.0916363E1,7.191941E1,1.1002327E2,-5.281684E-1,1.653225E1,3.271796E1,4.7645283E1,8.479358E1,6.457451E1,7.828139E1,1.27541565E2,5.361241E-1,-3.1435487E0,4.998964E0,2.1653679E1,2.7995636E1,3.6372486E1,4.1646084E1,5.1483955E1,8.206225E1,1.9021666E2,5.8323746E1,1.0214157E2,5.5659492E1,8.614025E1,1.1097439E2,1.51775E2,-1.1558999E-1,2.4318383E0,-2.5377588E0,-5.89577E0,3.3636117E0,1.3170836E1,2.7668114E0,2.4605577E1,7.5170355E0,2.854048E1,3.4624428E1,4.1593422E1,3.5175835E1,4.3538673E1,5.8043888E1,4.4169586E1,9.019113E1,6.8589554E1,1.546968E2,2.3948586E2,5.4944744E1,7.9629326E1,1.13049164E2,3.0292456E1,4.5862255E1,8.6893906E1,7.0017654E1,1.0223501E2,9.20328E1,1.278086E2,1.3070367E2,1.805099E2,5.622203E-2,-1.0964805E0,2.0550237E0,6.202271E0,-2.5991433E0,2.4867088E1,-6.842513E0,-4.7305727E0,3.7482505E0,-1.4321074E0,1.9153671E1,-7.411836E0,6.1036922E-2,2.4397747E1,2.3785994E1,5.5582222E1,3.280866E1,5.3310976E0,2.4956009E1,3.0875334E1,6.8589787E0,3.49932E1,2.2560072E1,4.3925045E1,-2.220042E0,3.5963795E1,3.562977E1,4.590634E1,5.0705097E1,6.2623707E1,4.1172974E1,6.8144714E1,7.818356E1,1.09959854E2,6.008348E1,7.8320045E1,1.176829E2,1.7349313E2,2.6059674E2,1.7714215E2,5.9109203E1,3.9969242E1,6.765806E1,9.737642E1,1.02912025E2,1.6130243E2,2.5689743E1,8.847928E1,-1.0000332E1,5.253628E1,1.3721625E2,7.210407E1,6.831331E1,1.7056769E2,8.943825E1,1.2172941E2,7.997718E1,1.1662637E2,1.2075407E2,1.7861473E2,1.1709176E2,1.6593039E2,1.6751213E2,2.3441562E2],"categories":[],"categories_nodes":[],"categories_segments":[],"categories_sizes":[],"default_left":[true,true,true,true,true,true,true,true,true,true,true,true,true,true,true,true,true,true,true,true,true,true,true,true,true,true,true,true,true,true,true,true,true,true,true,true,true,true,true,true,true,true,true,true,true,true,true,true,true,true,true,true,true,true,true,true,true,true,true,true,true,true,true,false,false,false,false,false,false,false,false,false,false,false,false,false,false,false,false,false,false,false,false,false,false,false,false,false,false,false,false,false,false,false,false,false,false,false,false,false,false,false,false,false,false,false,false,false,false,false,false,false,false,false,false,false,false,false,false,false,false,false,false,false,false,false,false],"id":2,"left_children":[1,3,5,7,9,11,13,15,17,19,21,23,25,27,29,31,33,35,37,39,41,43,45,47,49,51,53,55,57,59,61,63,65,67,69,71,73,75,77,79,81,83,85,87,89,91,93,95,97,99,101,103,105,107,109,111,113,115,117,119,121,123,125,-1,-1,-1,-1,-1,-1,-1,-1,-1,-1,-1,-1,-1,-1,-1,-1,-1,-1,-1,-1,-1,-1,-1,-1,-1,-1,-1,-1,-1,-1,-1,-1,-1,-1,-1,-1,-1,-1,-1,-1,-1,-1,-1,-1,-1,-1,-1,-1,-1,-1,-1,-1,-1,-1,-1,-1,-1,-1,-1,-1,-1,-1,-1,-1],"loss_changes":[3.9892336E7,7.361276E6,7.958416E6,1.0164093E5,1.097026E6,1.106072E6,5.711912E6,1.5244294E4,2.1923703E4,1.53957E5,2.49678E5,1.213052E6,1.75263E6,6.46244E5,2.644568E6,4.809941E3,2.6259912E3,1.5059097E3,1.4315984E4,4.35455E4,4.4731E4,5.07815E4,3.17186E5,4.49518E5,1.5020625E5,4.58028E5,8.32785E5,2.8580725E5,6.97614E5,1.244888E6,1.604548E6,4.8845804E2,1.4023252E3,2.2515283E3,2.8202637E2,1.8614075E2,2.4816758E3,2.1055344E3,4.339422E3,5.519542E3,3.12E4,3.86275E4,5.510375E4,2.872125E4,6.01775E4,1.14796E5,2.238625E5,6.06678E5,1.252405E5,2.4805E4,1.0431E4,3.43574E5,1.79735E5,4.36353E5,3.575704E4,2.7008025E5,1.5756438E5,2.21414E5,3.27637E5,5.41552E5,7.25364E5,7.26198E5,7.55976E5,0E0,0E0,0E0,0E0,0E0,0E0,0E0,0E0,0E0,0E0,0E0,0E0,0E0,0E0,0E0,0E0,0E0,0E0,0E0,0E0,0E0,0E0,0E0,0E0,0E0,0E0,0E0,0E0,0E0,0E0,0E0,0E0,0E0,0E0,0E0,0E0,0E0,0E0,0E0,0E0,0E0,0E0,0E0,0E0,0E0,0E0,0E0,0E0,0E0,0E0,0E0,0E0,0E0,0E0,0E0,0E0,0E0,0E0,0E0,0E0,0E0,0E0,0E0,0E0],"parents":[2147483647,0,0,1,1,2,2,3,3,4,4,5,5,6,6,7,7,8,8,9,9,10,10,11,11,12,12,13,13,14,14,15,15,16,16,17,17,18,18,19,19,20,20,21,21,22,22,23,23,24,24,25,25,26,26,27,27,28,28,29,29,30,30,31,31,32,32,33,33,34,34,35,35,36,36,37,37,38,38,39,39,40,40,41,41,42,42,43,43,44,44,45,45,46,46,47,47,48,48,49,49,50,50,51,51,52,52,53,53,54,54,55,55,56,56,57,57,58,58,59,59,60,60,61,61,62,62],"right_children":[2,4,6,8,10,12,14,16,18,20,22,24,26,28,30,32,34,36,38,40,42,44,46,48,50,52,54,56,58,60,62,64,66,68,70,72,74,76,78,80,82,84,86,88,90,92,94,96,98,100,102,104,106,108,110,112,114,116,118,120,122,124,126,-1,-1,-1,-1,-1,-1,-1,-1,-1,-1,-1,-1,-1,-1,-1,-1,-1,-1,-1,-1,-1,-1,-1,-1,-1,-1,-1,-1,-1,-1,-1,-1,-1,-1,-1,-1,-1,-1,-1,-1,-1,-1,-1,-1,-1,-1,-1,-1,-1,-1,-1,-1,-1,-1,-1,-1,-1,-1,-1,-1,-1,-1,-1,-1],"split_conditions":[2.110929E1,4.5735273E0,3.6187325E1,7.7930126E0,1.4326225E1,1.0118136E3,7.135E-2,1.48175E0,2.606705E3,5.1380577E0,5.5420322E0,2.75E1,3.5E0,7.581335E0,5.400038E1,3.7069921E0,2.97425E0,1.1195167E1,4.210253E0,1.41017E3,5.6430564E0,1.769545E3,1.1616241E3,1.85E1,1.7644055E3,2.14415E3,5.5E0,2.5E0,4.5649998E-2,1.2924999E-1,1.1155E-1,4.2504697E3,4.334025E0,8.5E0,2.586004E0,4.52763E0,3.7401E-1,4.428915E3,1.5507198E1,1.84005E2,4.893722E0,1.8065E-1,2.375E-2,1.219E-1,5.117448E0,1.38902E3,1.1E1,1.55E1,6.421241E0,2.6056501E1,3.0411E-1,1.85E1,2.7157043E1,3.9E1,7.5E0,6.401553E0,1.143E-2,3.5E0,8.5212345E0,7.39736E0,3.5E0,8.188406E0,8.279371E1,1.686661E-2,-3.2894415E-1,6.165071E-1,1.8606814E0,-7.79743E-1,7.460127E0,-2.052754E0,-1.4191718E0,1.1244752E0,-4.2963225E-1,5.7461014E0,-2.223551E0,1.8311078E-2,7.3193245E0,7.1357985E0,1.6674667E1,9.842598E0,1.5993294E0,7.486803E0,9.262601E0,2.0576937E0,1.049796E1,6.768022E0,1.3177514E1,-6.6601264E-1,1.0789139E1,1.06889305E1,1.3771903E1,1.521153E1,1.8787113E1,1.2351892E1,2.0443415E1,2.345507E1,3.2987957E1,1.8025045E1,2.3496014E1,3.530487E1,5.2047943E1,7.817902E1,5.3142647E1,1.7732761E1,1.1990773E1,2.0297419E1,2.9212927E1,3.087361E1,4.839073E1,7.706923E0,2.6543785E1,-3.0000997E0,1.5760885E1,4.1164875E1,2.1631222E1,2.0493994E1,5.1170307E1,2.6831476E1,3.6518826E1,2.3993155E1,3.4987915E1,3.6226223E1,5.3584423E1,3.512753E1,4.9779118E1,5.0253643E1,7.032469E1],"split_indices":[11,12,11,11,11,1,4,4,2,12,12,8,9,12,11,12,4,11,12,2,12,2,1,8,0,2,9,9,4,4,4,2,12,9,12,12,3,2,11,2,12,4,4,4,12,2,6,8,12,11,3,7,11,7,6,12,3,9,12,12,9,12,11,0,0,0,0,0,0,0,0,0,0,0,0,0,0,0,0,0,0,0,0,0,0,0,0,0,0,0,0,0,0,0,0,0,0,0,0,0,0,0,0,0,0,0,0,0,0,0,0,0,0,0,0,0,0,0,0,0,0,0,0,0,0,0,0],"split_type":[0,0,0,0,0,0,0,0,0,0,0,0,0,0,0,0,0,0,0,0,0,0,0,0,0,0,0,0,0,0,0,0,0,0,0,0,0,0,0,0,0,0,0,0,0,0,0,0,0,0,0,0,0,0,0,0,0,0,0,0,0,0,0,0,0,0,0,0,0,0,0,0,0,0,0,0,0,0,0,0,0,0,0,0,0,0,0,0,0,0,0,0,0,0,0,0,0,0,0,0,0,0,0,0,0,0,0,0,0,0,0,0,0,0,0,0,0,0,0,0,0,0,0,0,0,0,0],"sum_hessian":[4.7803E4,2.576E4,2.2043E4,5.847E3,1.9913E4,1.1754E4,1.0289E4,5.475E3,3.72E2,8.979E3,1.0934E4,4.266E3,7.488E3,3.661E3,6.628E3,3.892E3,1.583E3,1.15E2,2.57E2,3.921E3,5.058E3,4.271E3,6.663E3,4.16E3,1.06E2,6.422E3,1.066E3,9.46E2,2.715E3,3.94E3,2.688E3,2.897E3,9.95E2,1.299E3,2.84E2,9.7E1,1.8E1,3.5E1,2.22E2,1.02E2,3.819E3,3.795E3,1.263E3,9.71E2,3.3E3,3.509E3,3.154E3,2.591E3,1.569E3,6.4E1,4.2E1,5.546E3,8.76E2,9.25E2,1.41E2,7.22E2,2.24E2,1.359E3,1.356E3,1.857E3,2.083E3,1.554E3,1.134E3,2.466E3,4.31E2,9.06E2,8.9E1,1.297E3,2E0,1.54E2,1.3E2,9E1,7E0,1.4E1,4E0,3.2E1,3E0,2.18E2,4E0,7E0,9.5E1,1.511E3,2.308E3,5E1,3.745E3,1.39E2,1.124E3,2E1,9.51E2,7.64E2,2.536E3,1.353E3,2.156E3,2.806E3,3.48E2,1.615E3,9.76E2,8.41E2,7.28E2,2.4E1,4E1,2.9E1,1.3E1,4.337E3,1.209E3,5.26E2,3.5E2,7.67E2,1.58E2,1.32E2,9E0,7.7E1,6.45E2,4.9E1,1.75E2,1.338E3,2.1E1,8.22E2,5.34E2,1.249E3,6.08E2,1.832E3,2.51E2,1.124E3,4.3E2,9.17E2,2.17E2],"tree_param":{"num_deleted":"0","num_feature":"13","num_nodes":"127","size_leaf_vector":"0"}},{"base_weights":[4.0963547E1,2.5396866E1,6.8497025E1,2.5155222E0,3.2007954E1,5.2986713E1,7.868822E1,-3.4590635E-1,1.442977E1,2.6812601E1,4.1665596E1,4.288294E1,7.4161934E1,6.425783E1,1.0481305E2,-2.809378E0,2.2837594E-1,-6.412624E-1,1.6068462E1,2.2219017E1,2.9526701E1,3.1488976E1,4.9389164E1,3.247374E1,4.9067898E1,5.674E1,8.367498E1,4.6389122E1,7.331014E1,9.54057E1,1.3331062E2,-4.5887647E0,-2.3232312E0,-1.1716554E-1,2.2033703E0,2.405188E0,-3.1052328E1,1.9152794E1,1.367567E1,2.2405985E1,-3.512967E1,-1.7897835E1,2.9710468E1,1.932873E1,3.5490017E1,3.901315E1,5.9700287E1,2.1655321E1,3.8562138E1,3.5254272E1,5.925832E1,8.696658E1,4.9569405E1,7.916585E1,1.161419E2,3.8806206E1,6.092598E1,5.821624E1,8.50735E1,8.138982E1,1.1249741E2,1.2357585E2,2.0148042E2,-5.618462E0,-4.0072227E0,-1.5937159E0,-2.766398E0,1.9122134E-1,-9.5393E-1,1.813718E0,5.2548437E0,-6.333273E-1,2.3717016E1,-1.7645377E0,1.9400398E1,2.4441667E0,1.5176635E1,2.108945E1,2.7288794E1,-3.8949955E1,1.6817741E1,-6.0406737E0,-4.645262E1,3.4145332E1,2.8117052E1,2.3217196E1,-1.6284798E1,2.5751646E1,4.1902298E1,3.7576107E1,5.912109E1,5.4174587E1,7.8090744E1,5.700141E0,2.5120846E1,3.612832E1,8.27618E1,3.393731E1,9.774306E1,5.21938E1,8.144673E1,6.2713364E1,1.3100214E2,2.5372545E1,6.1269344E1,7.407625E1,9.306587E1,9.752368E1,1.4005533E2,3.1631319E1,4.5919373E1,5.7591812E1,8.4685585E1,7.126143E1,4.5648647E1,7.846227E1,1.1318005E2,7.5396515E1,1.1526686E2,1.2390584E2,8.5219315E1,1.1231946E2,1.5355943E2,1.8265672E2,2.6719675E2],"categories":[],"categories_nodes":[],"categories_segments":[],"categories_sizes":[],"default_left":[true,true,true,true,true,true,true,true,true,true,true,true,true,true,true,true,true,true,true,true,true,true,true,true,true,true,true,true,true,true,true,true,true,true,true,true,false,true,true,true,true,true,true,true,true,true,true,true,true,true,true,true,true,true,true,true,true,true,true,true,true,true,true,false,false,false,false,false,false,false,false,false,false,false,false,false,false,false,false,false,false,false,false,false,false,false,false,false,false,false,false,false,false,false,false,false,false,false,false,false,false,false,false,false,false,false,false,false,false,false,false,false,false,false,false,false,false,false,false,false,false,false,false,false,false],"id":3,"left_children":[1,3,5,7,9,11,13,15,17,19,21,23,25,27,29,31,33,35,37,39,41,43,45,47,49,51,53,55,57,59,61,63,65,67,69,71,-1,73,75,77,79,81,83,85,87,89,91,93,95,97,99,101,103,105,107,109,111,113,115,117,119,121,123,-1,-1,-1,-1,-1,-1,-1,-1,-1,-1,-1,-1,-1,-1,-1,-1,-1,-1,-1,-1,-1,-1,-1,-1,-1,-1,-1,-1,-1,-1,-1,-1,-1,-1,-1,-1,-1,-1,-1,-1,-1,-1,-1,-1,-1,-1,-1,-1,-1,-1,-1,-1,-1,-1,-1,-1,-1,-1,-1,-1,-1,-1],"loss_changes":[2.048728E7,4.619722E6,2.724888E6,2.3343134E5,1.187728E6,1.46216E6,3.920388E6,7.8127695E3,3.2758219E4,1.91454E5,6.49724E5,2.97068E5,3.61693E5,1.082448E6,9.8054E5,8.924453E2,3.0569182E3,1.2211287E4,8.564781E3,6.21945E4,8.492E4,1.7339675E5,5.01479E5,1.1324625E5,4.0726E5,1.6561525E5,1.99862E5,2.467595E5,7.85878E5,6.58966E5,5.83639E5,1.1102051E2,2.613413E2,9.8411633E2,7.8354175E2,7.7857783E3,0E0,2.7274219E3,1.1375836E4,3.6124E4,4.425676E3,1.2585384E4,6.7204E4,1.2335009E5,1.66961E5,6.5684E4,2.35593E5,3.447028E4,1.16094375E5,9.8482125E4,2.57836E5,1.50917E5,1.7849825E5,8.20335E4,6.292025E4,7.448925E4,5.635875E4,3.170985E5,4.55852E5,3.03172E5,3.79686E5,2.54445E5,9.09785E4,0E0,0E0,0E0,0E0,0E0,0E0,0E0,0E0,0E0,0E0,0E0,0E0,0E0,0E0,0E0,0E0,0E0,0E0,0E0,0E0,0E0,0E0,0E0,0E0,0E0,0E0,0E0,0E0,0E0,0E0,0E0,0E0,0E0,0E0,0E0,0E0,0E0,0E0,0E0,0E0,0E0,0E0,0E0,0E0,0E0,0E0,0E0,0E0,0E0,0E0,0E0,0E0,0E0,0E0,0E0,0E0,0E0,0E0,0E0,0E0,0E0,0E0],"parents":[2147483647,0,0,1,1,2,2,3,3,4,4,5,5,6,6,7,7,8,8,9,9,10,10,11,11,12,12,13,13,14,14,15,15,16,16,17,17,18,18,19,19,20,20,21,21,22,22,23,23,24,24,25,25,26,26,27,27,28,28,29,29,30,30,31,31,32,32,33,33,34,34,35,35,37,37,38,38,39,39,40,40,41,41,42,42,43,43,44,44,45,45,46,46,47,47,48,48,49,49,50,50,51,51,52,52,53,53,54,54,55,55,56,56,57,57,58,58,59,59,60,60,61,61,62,62],"right_children":[2,4,6,8,10,12,14,16,18,20,22,24,26,28,30,32,34,36,38,40,42,44,46,48,50,52,54,56,58,60,62,64,66,68,70,72,-1,74,76,78,80,82,84,86,88,90,92,94,96,98,100,102,104,106,108,110,112,114,116,118,120,122,124,-1,-1,-1,-1,-1,-1,-1,-1,-1,-1,-1,-1,-1,-1,-1,-1,-1,-1,-1,-1,-1,-1,-1,-1,-1,-1,-1,-1,-1,-1,-1,-1,-1,-1,-1,-1,-1,-1,-1,-1,-1,-1,-1,-1,-1,-1,-1,-1,-1,-1,-1,-1,-1,-1,-1,-1,-1,-1,-1,-1,-1,-1],"split_conditions":[6.276785E0,9.508816E0,8.775E-2,4.4156094E0,1.9144943E1,6.2961983E1,7.0076246E0,3.090056E0,1.813825E3,1.32541065E1,1.41285E3,7.347897E0,4.795E-2,1.4285001E-1,6.6347595E1,2.5905051E0,3.8779116E0,6.249055E0,4.1385502E-1,6.2690372E0,7.98E-2,1.3865E-1,5.8250246E0,3.0463116E1,3.9049998E-2,1.129E-2,9.126049E0,6.7588577E0,2.8089886E1,1.2904999E-1,1.5450001E-1,2.2880921E0,4.945215E3,4.156715E3,7.9812555E0,5.596628E0,-9.315699E0,6.4005404E0,2.989405E3,5.439019E0,3.0666191E3,6.259344E0,8.384535E2,6.2694216E0,5.9160566E0,1.1E1,2.8108227E1,4.7799997E-2,3.5E0,3.5E0,8.325991E0,2.1542249E3,3.335E-2,9.699672E1,6.185E-2,1.1835E-1,8.3506E2,1.1851564E3,2.75E1,7.9034057E0,2.686361E3,9.69789E1,1.3610449E3,-1.6855386E0,-1.2021668E0,-4.7811478E-1,-8.299194E-1,5.7366405E-2,-2.86179E-1,5.441154E-1,1.5764532E0,-1.899982E-1,7.115105E0,-5.293613E-1,5.82012E0,7.3325E-1,4.5529904E0,6.3268356E0,8.186639E0,-1.1684987E1,5.0453224E0,-1.8122022E0,-1.3935787E1,1.02436E1,8.435116E0,6.965159E0,-4.8854394E0,7.725494E0,1.257069E1,1.1272833E1,1.7736328E1,1.6252377E1,2.3427223E1,1.7100424E0,7.536254E0,1.0838496E1,2.4828543E1,1.0181193E1,2.9322918E1,1.5658141E1,2.4434021E1,1.881401E1,3.9300644E1,7.611764E0,1.8380804E1,2.2222876E1,2.7919764E1,2.9257105E1,4.20166E1,9.489396E0,1.3775812E1,1.7277544E1,2.5405676E1,2.137843E1,1.3694594E1,2.3538683E1,3.3954018E1,2.2618956E1,3.458006E1,3.7171753E1,2.5565796E1,3.369584E1,4.6067833E1,5.479702E1,8.015903E1],"split_indices":[12,11,4,12,11,11,12,12,2,11,2,12,4,4,11,12,12,12,3,12,4,4,12,11,4,3,12,12,11,4,4,12,2,2,11,12,0,11,2,12,0,12,1,12,12,6,11,4,9,9,12,0,4,11,4,4,2,1,8,12,0,11,2,0,0,0,0,0,0,0,0,0,0,0,0,0,0,0,0,0,0,0,0,0,0,0,0,0,0,0,0,0,0,0,0,0,0,0,0,0,0,0,0,0,0,0,0,0,0,0,0,0,0,0,0,0,0,0,0,0,0,0,0,0,0],"split_type":[0,0,0,0,0,0,0,0,0,0,0,0,0,0,0,0,0,0,0,0,0,0,0,0,0,0,0,0,0,0,0,0,0,0,0,0,0,0,0,0,0,0,0,0,0,0,0,0,0,0,0,0,0,0,0,0,0,0,0,0,0,0,0,0,0,0,0,0,0,0,0,0,0,0,0,0,0,0,0,0,0,0,0,0,0,0,0,0,0,0,0,0,0,0,0,0,0,0,0,0,0,0,0,0,0,0,0,0,0,0,0,0,0,0,0,0,0,0,0,0,0,0,0,0,0],"sum_hessian":[4.7803E4,3.0539E4,1.7264E4,6.846E3,2.3693E4,6.848E3,1.0416E4,5.521E3,1.325E3,1.5408E4,8.285E3,4.638E3,2.21E3,6.712E3,3.704E3,1.043E3,4.478E3,1.3E2,1.195E3,5.726E3,9.682E3,3.577E3,4.708E3,1.731E3,2.907E3,7.83E2,1.427E3,2.259E3,4.453E3,2.788E3,9.16E2,2.22E2,8.21E2,3.812E3,6.66E2,1.19E2,1.1E1,5.19E2,6.76E2,5.708E3,1.8E1,3.7E1,9.645E3,8.87E2,2.69E3,2.349E3,2.359E3,6.25E2,1.106E3,1.236E3,1.671E3,1.48E2,6.35E2,1.256E3,1.71E2,1.487E3,7.72E2,1.953E3,2.5E3,1.535E3,1.253E3,8.04E2,1.12E2,7.7E1,1.45E2,3.12E2,5.09E2,2.786E3,1.026E3,5.92E2,7.4E1,1.05E2,1.4E1,6E0,5.13E2,8E1,5.96E2,4.5E3,1.208E3,1.7E1,1E0,2.7E1,1E1,2.544E3,7.101E3,8E2,8.7E1,1.07E3,1.62E3,2.195E3,1.54E2,1.817E3,5.42E2,1.12E2,5.13E2,1.05E3,5.6E1,1.212E3,2.4E1,1.27E3,4.01E2,9.7E1,5.1E1,2.08E2,4.27E2,9.24E2,3.32E2,9.9E1,7.2E1,7.43E2,7.44E2,6.8E2,9.2E1,9.56E2,9.97E2,2.027E3,4.73E2,1.307E3,2.28E2,8.81E2,3.72E2,5.88E2,2.16E2,9E1,2.2E1],"tree_param":{"num_deleted":"0","num_feature":"13","num_nodes":"125","size_leaf_vector":"0"}},{"base_weights":[2.8693956E1,1.9009634E1,5.0880917E1,2.474809E0,2.3756338E1,3.4031967E1,5.6982346E1,-2.0506029E-1,1.0601868E1,2.0018858E1,3.1839262E1,2.397837E1,4.2797142E1,4.7375763E1,7.295748E1,2.4436924E-1,-1.9826572E0,-1.567422E0,1.1331386E1,1.6989532E1,2.3225397E1,2.0039972E1,3.6262608E1,1.8207716E1,4.2747936E1,3.1454197E1,5.2952854E1,3.912916E1,6.398943E1,6.153911E1,9.200292E1,-3.148925E-2,2.2544003E0,-2.9629E0,-1.4820223E0,-2.7961977E0,1.1850206E1,1.0175173E1,1.733706E1,1.594209E1,2.3248272E1,1.7916471E1,2.7172186E1,1.0094756E1,2.6998476E1,4.3853966E1,2.8354008E1,9.624812E0,2.4758804E1,8.839083E1,3.2816807E1,3.7971E1,2.0613585E1,4.6224663E1,7.0693756E1,2.8983376E1,4.6292824E1,5.6396374E1,1.08449554E2,5.2197422E1,7.7412025E1,1.066816E2,7.645541E1,-6.509735E-3,-1.0888528E1,1.6092355E0,8.253263E0,-2.7208471E0,-4.7494655E0,-1.2856967E0,-2.4788594E0,1.3810045E0,-6.29012E0,-2.3111439E0,1.3909267E1,-1.0613978E0,1.0641113E1,1.2205441E1,1.983725E1,1.693746E1,1.1807619E1,2.2219067E1,4.249303E1,2.2630999E1,1.3354122E1,3.250134E1,2.1008228E1,-2.5490278E1,1.3009983E1,2.2123018E1,3.610214E1,4.2754623E1,1.2709692E2,2.4436953E1,5.625221E1,-1.3181886E1,1.2570269E1,2.038174E1,3.606138E1,3.699788E1,1.1334734E2,5.646392E0,3.671796E1,2.6231026E1,6.220786E1,1.1145664E1,3.4362442E1,4.797897E1,1.7433508E1,8.938202E1,6.548457E1,2.2716452E1,3.7730793E1,3.6068523E1,5.5137337E1,7.455854E1,4.4066326E1,2.2644829E2,9.6842705E1,4.905918E1,7.372932E1,7.120097E1,1.0157655E2,9.932752E1,1.4976941E2,8.086704E1,3.0009024E1],"categories":[],"categories_nodes":[],"categories_segments":[],"categories_sizes":[],"default_left":[true,true,true,true,true,true,true,true,true,true,true,true,true,true,true,true,true,true,true,true,true,true,true,true,true,true,true,true,true,true,true,true,true,true,true,true,true,true,true,true,true,true,true,true,true,true,true,true,true,true,true,true,true,true,true,true,true,true,true,true,true,true,true,false,false,false,false,false,false,false,false,false,false,false,false,false,false,false,false,false,false,false,false,false,false,false,false,false,false,false,false,false,false,false,false,false,false,false,false,false,false,false,false,false,false,false,false,false,false,false,false,false,false,false,false,false,false,false,false,false,false,false,false,false,false,false,false],"id":4,"left_children":[1,3,5,7,9,11,13,15,17,19,21,23,25,27,29,31,33,35,37,39,41,43,45,47,49,51,53,55,57,59,61,63,65,67,69,71,73,75,77,79,81,83,85,87,89,91,93,95,97,99,101,103,105,107,109,111,113,115,117,119,121,123,125,-1,-1,-1,-1,-1,-1,-1,-1,-1,-1,-1,-1,-1,-1,-1,-1,-1,-1,-1,-1,-1,-1,-1,-1,-1,-1,-1,-1,-1,-1,-1,-1,-1,-1,-1,-1,-1,-1,-1,-1,-1,-1,-1,-1,-1,-1,-1,-1,-1,-1,-1,-1,-1,-1,-1,-1,-1,-1,-1,-1,-1,-1,-1,-1],"loss_changes":[1.0270472E7,2.611953E6,1.491268E6,1.6169284E5,7.80496E5,3.394755E5,1.632804E6,4.4615674E3,1.6361656E4,1.71382E5,4.25894E5,1.9440119E5,2.3598325E5,9.10095E5,8.64644E5,2.4719612E3,5.4867725E2,1.7642971E3,1.1885047E4,5.926625E4,1.794595E5,1.5412112E5,3.55617E5,7.735547E4,1.88839E5,6.823856E4,1.26481E5,3.22379E5,7.39279E5,3.67401E5,3.33713E5,1.0633181E3,2.068916E3,1.51406E2,1.4319995E2,1.4243843E3,2.9457812E2,7.65E3,3.337461E3,3.1883E4,2.4844312E4,7.85295E4,1.6106425E5,9.5771E4,5.7433875E4,2.719405E5,3.1706375E5,4.0404207E4,3.795222E4,9.2000625E4,3.678528E4,1.7165312E5,4.765089E4,3.9115875E4,2.306E4,1.00339625E5,2.339405E5,4.19514E5,4.1770975E5,1.03147E5,1.31748E5,2.28481E5,1.47358E5,0E0,0E0,0E0,0E0,0E0,0E0,0E0,0E0,0E0,0E0,0E0,0E0,0E0,0E0,0E0,0E0,0E0,0E0,0E0,0E0,0E0,0E0,0E0,0E0,0E0,0E0,0E0,0E0,0E0,0E0,0E0,0E0,0E0,0E0,0E0,0E0,0E0,0E0,0E0,0E0,0E0,0E0,0E0,0E0,0E0,0E0,0E0,0E0,0E0,0E0,0E0,0E0,0E0,0E0,0E0,0E0,0E0,0E0,0E0,0E0,0E0,0E0,0E0,0E0],"parents":[2147483647,0,0,1,1,2,2,3,3,4,4,5,5,6,6,7,7,8,8,9,9,10,10,11,11,12,12,13,13,14,14,15,15,16,16,17,17,18,18,19,19,20,20,21,21,22,22,23,23,24,24,25,25,26,26,27,27,28,28,29,29,30,30,31,31,32,32,33,33,34,34,35,35,36,36,37,37,38,38,39,39,40,40,41,41,42,42,43,43,44,44,45,45,46,46,47,47,48,48,49,49,50,50,51,51,52,52,53,53,54,54,55,55,56,56,57,57,58,58,59,59,60,60,61,61,62,62],"right_children":[2,4,6,8,10,12,14,16,18,20,22,24,26,28,30,32,34,36,38,40,42,44,46,48,50,52,54,56,58,60,62,64,66,68,70,72,74,76,78,80,82,84,86,88,90,92,94,96,98,100,102,104,106,108,110,112,114,116,118,120,122,124,126,-1,-1,-1,-1,-1,-1,-1,-1,-1,-1,-1,-1,-1,-1,-1,-1,-1,-1,-1,-1,-1,-1,-1,-1,-1,-1,-1,-1,-1,-1,-1,-1,-1,-1,-1,-1,-1,-1,-1,-1,-1,-1,-1,-1,-1,-1,-1,-1,-1,-1,-1,-1,-1,-1,-1,-1,-1,-1,-1,-1,-1,-1,-1,-1],"split_conditions":[2.891682E1,4.8702145E0,6.645E-2,7.811877E0,5.9646025E0,8.070335E0,7.185877E0,1.76315E0,1.775425E3,5.4660525E0,1.2755E-1,2.5E0,3.875E-2,1.224115E3,1.1105E-1,6.1243496E0,2.7661004E0,1.627776E1,3.5E0,2.5E0,1.7073049E3,6.6221943E0,1.1848544E3,4.715E-2,1.0385E-2,1.8843755E3,9.078709E0,6.626699E0,2.85E1,7.9572372E0,1.015E2,4.7765045E0,4.1231E3,4.4551E0,3.0340074E4,9.417654E0,1.4724861E3,4.2724037E0,1.7227253E3,3.95275E-1,3.9E1,1.0781914E3,3.15885E-1,3.52E-2,7.665E-2,2.85E1,1.1E1,6.4663143E0,5.566961E1,2E1,3.605E-2,1.8082711E3,2.815E-2,9.3325004E-2,1.2359644E3,1.5075001E-1,1.1805E-1,2.29325E-1,9.704439E2,8.288397E1,8.751583E0,1.2307151E3,3.839566E3,-1.9529205E-3,-3.2665584E0,4.8277068E-1,2.475979E0,-8.162542E-1,-1.4248397E0,-3.8570905E-1,-7.436578E-1,4.1430137E-1,-1.8870361E0,-6.9334316E-1,4.1727805E0,-3.1841934E-1,3.1923342E0,3.6616325E0,5.951175E0,5.0812383E0,3.542286E0,6.6657205E0,1.274791E1,6.7893E0,4.006237E0,9.750402E0,6.302469E0,-7.6470838E0,3.902995E0,6.6369057E0,1.0830642E1,1.2826387E1,3.8129078E1,7.331086E0,1.6875664E1,-3.9545658E0,3.7710807E0,6.1145225E0,1.0818414E1,1.1099364E1,3.4004204E1,1.6939176E0,1.10153885E1,7.869308E0,1.866236E1,3.3436995E0,1.0308733E1,1.4393691E1,5.2300525E0,2.6814608E1,1.9645372E1,6.8149357E0,1.1319239E1,1.0820558E1,1.6541203E1,2.2367563E1,1.3219898E1,6.793449E1,2.9052813E1,1.4717755E1,2.2118795E1,2.1360292E1,3.0472967E1,2.9798258E1,4.4930824E1,2.4260115E1,9.0027075E0],"split_indices":[11,12,4,11,12,12,12,4,2,12,4,9,4,2,4,11,12,11,6,9,2,12,1,4,3,1,12,12,8,12,5,12,2,4,0,11,0,12,1,3,8,1,3,4,4,8,6,12,11,8,4,0,4,3,1,4,4,3,1,11,12,2,0,0,0,0,0,0,0,0,0,0,0,0,0,0,0,0,0,0,0,0,0,0,0,0,0,0,0,0,0,0,0,0,0,0,0,0,0,0,0,0,0,0,0,0,0,0,0,0,0,0,0,0,0,0,0,0,0,0,0,0,0,0,0,0,0],"split_type":[0,0,0,0,0,0,0,0,0,0,0,0,0,0,0,0,0,0,0,0,0,0,0,0,0,0,0,0,0,0,0,0,0,0,0,0,0,0,0,0,0,0,0,0,0,0,0,0,0,0,0,0,0,0,0,0,0,0,0,0,0,0,0,0,0,0,0,0,0,0,0,0,0,0,0,0,0,0,0,0,0,0,0,0,0,0,0,0,0,0,0,0,0,0,0,0,0,0,0,0,0,0,0,0,0,0,0,0,0,0,0,0,0,0,0,0,0,0,0,0,0,0,0,0,0,0,0],"sum_hessian":[4.7803E4,3.3279E4,1.4524E4,7.423E3,2.5856E4,3.863E3,1.0661E4,5.583E3,1.84E3,1.7683E4,8.173E3,1.801E3,2.062E3,6.66E3,4.001E3,4.457E3,1.126E3,1.04E2,1.736E3,9.096E3,8.587E3,2.23E3,5.943E3,1.379E3,4.22E2,9.76E2,1.086E3,4.453E3,2.207E3,2.504E3,1.497E3,3.92E3,5.37E2,3.79E2,7.47E2,9.6E1,8E0,1.458E3,2.78E2,7.795E3,1.301E3,3.664E3,4.923E3,9.19E2,1.311E3,3.03E3,2.913E3,5.98E2,7.81E2,7.4E1,3.48E2,6.08E2,3.68E2,7.9E2,2.96E2,1.845E3,2.608E3,1.887E3,3.2E2,1.579E3,9.25E2,7.67E2,7.3E2,3.912E3,8E0,4.86E2,5.1E1,3.36E2,4.3E1,6.26E2,1.21E2,4.4E1,5.2E1,1E0,7E0,5.8E1,1.4E3,9.3E1,1.85E2,6.28E3,1.515E3,1.237E3,6.4E1,1.8E3,1.864E3,2.638E3,2.285E3,6.9E1,8.5E2,8.56E2,4.55E2,2.992E3,3.8E1,2.556E3,3.57E2,6.8E1,5.3E2,5.65E2,2.16E2,2.5E1,4.9E1,4.4E1,3.04E2,4.11E2,1.97E2,2.19E2,1.49E2,7.44E2,4.6E1,6.1E1,2.35E2,1.077E3,7.68E2,1.212E3,1.396E3,7.61E2,1.126E3,2.7E1,2.93E2,1.381E3,1.98E2,7.39E2,1.86E2,6.58E2,1.09E2,6.66E2,6.4E1],"tree_param":{"num_deleted":"0","num_feature":"13","num_nodes":"127","size_leaf_vector":"0"}},{"base_weights":[2.0100626E1,1.2398521E1,3.4634235E1,2.1823654E0,1.5982385E1,2.3707777E1,3.9797485E1,-2.0276526E-1,7.182936E0,1.2960191E1,2.0173445E1,1.751243E1,3.2584297E1,3.3516457E1,5.558088E1,2.7640668E-1,-1.1068945E0,-7.566556E0,7.5846925E0,4.619987E0,1.3490368E1,1.4307592E1,2.6788548E1,1.3528323E1,2.3997406E1,2.269452E1,3.8084377E1,3.8201496E1,1.9841728E1,5.021652E1,9.801086E1,-1.9702864E-1,9.6582174E-1,-1.1266375E0,1.8231987E1,-9.226579E0,3.2582806E1,8.090171E0,6.299918E-1,-1.33857765E1,6.1405025E0,1.4740666E1,1.0205899E1,1.8764713E1,7.0830345E0,1.848954E1,3.2709003E1,3.575277E1,1.18226185E1,1.5024792E1,3.3812393E1,3.221878E1,6.7435613E0,3.238362E1,5.268993E1,3.6026638E1,7.4469055E1,1.21622715E1,4.3700512E1,4.2464916E1,6.639047E1,7.9147896E1,1.4210822E2,-1.2520868E-1,-5.986549E-1,1.5340806E0,5.44892E-1,-1.852672E0,-7.297041E-1,-1.0493121E0,-1.4263712E1,7.721271E0,1.2663832E1,-4.1166215E0,9.058415E0,-1.9112982E1,1.887971E1,-7.6810045E0,7.042578E0,1.4152239E1,2.417302E1,8.823787E0,1.505693E1,1.2785676E1,2.348011E1,1.2317511E1,-3.1438103E-1,1.5184286E1,2.4428288E1,2.9611115E1,5.0419193E1,2.2755598E1,8.3819534E1,1.9256437E0,1.6982098E1,2.2414385E1,4.17218E0,2.7076216E1,4.929302E1,2.708373E1,4.800047E1,-9.624784E0,1.3120114E1,6.45508E1,2.9958902E1,5.543633E1,1.640101E1,3.427643E1,8.168709E1,1.0557359E2,4.3109436E1,1.6386131E1,-2.6015122E0,2.991289E1,8.6174355E1,3.9489563E1,6.735765E1,5.5097813E1,8.676301E1,9.7268364E1,2.7391542E1,1.1386991E2,1.7513353E2],"categories":[],"categories_nodes":[],"categories_segments":[],"categories_sizes":[],"default_left":[true,true,true,true,true,true,true,true,true,true,true,true,true,true,true,true,true,true,true,true,true,true,true,true,true,true,true,true,true,true,true,true,true,true,false,true,false,true,true,true,true,true,true,true,true,true,true,true,true,true,true,true,true,true,true,true,true,true,true,true,true,true,true,false,false,false,false,false,false,false,false,false,false,false,false,false,false,false,false,false,false,false,false,false,false,false,false,false,false,false,false,false,false,false,false,false,false,false,false,false,false,false,false,false,false,false,false,false,false,false,false,false,false,false,false,false,false,false,false,false,false,false,false],"id":5,"left_children":[1,3,5,7,9,11,13,15,17,19,21,23,25,27,29,31,33,35,37,39,41,43,45,47,49,51,53,55,57,59,61,63,65,67,-1,69,-1,71,73,75,77,79,81,83,85,87,89,91,93,95,97,99,101,103,105,107,109,111,113,115,117,119,121,-1,-1,-1,-1,-1,-1,-1,-1,-1,-1,-1,-1,-1,-1,-1,-1,-1,-1,-1,-1,-1,-1,-1,-1,-1,-1,-1,-1,-1,-1,-1,-1,-1,-1,-1,-1,-1,-1,-1,-1,-1,-1,-1,-1,-1,-1,-1,-1,-1,-1,-1,-1,-1,-1,-1,-1,-1,-1,-1,-1],"loss_changes":[5.35072E6,1.144021E6,9.33194E5,9.680112E4,2.92733E5,2.91773E5,1.112722E6,2.3813564E3,1.5588641E4,5.937975E4,3.7562E5,8.062219E4,1.1793325E5,5.14658E5,7.23202E5,1.1729219E3,7.475012E2,4.9660464E3,8.966328E3,2.2121518E4,5.17525E4,1.653145E5,2.2310175E5,7.323322E4,1.0437869E5,1.1873697E5,1.15028E5,4.69867E5,3.7599075E5,3.534935E5,2.8653925E5,6.1393265E1,3.491095E2,5.470686E2,0E0,2.7859517E3,0E0,3.916125E3,6.998416E3,1.2002684E4,9.31785E3,5.0453875E4,2.3253031E4,8.9270625E4,7.597565E4,3.6885062E4,1.442265E5,8.430564E4,9.218753E4,4.994903E4,5.78965E4,3.8409406E4,3.0812121E4,7.6920375E4,3.8158875E4,4.49042E5,3.2514275E5,9.7075016E4,2.9022888E5,1.398405E5,2.0664475E5,2.346115E5,7.8911E4,0E0,0E0,0E0,0E0,0E0,0E0,0E0,0E0,0E0,0E0,0E0,0E0,0E0,0E0,0E0,0E0,0E0,0E0,0E0,0E0,0E0,0E0,0E0,0E0,0E0,0E0,0E0,0E0,0E0,0E0,0E0,0E0,0E0,0E0,0E0,0E0,0E0,0E0,0E0,0E0,0E0,0E0,0E0,0E0,0E0,0E0,0E0,0E0,0E0,0E0,0E0,0E0,0E0,0E0,0E0,0E0,0E0,0E0,0E0,0E0],"parents":[2147483647,0,0,1,1,2,2,3,3,4,4,5,5,6,6,7,7,8,8,9,9,10,10,11,11,12,12,13,13,14,14,15,15,16,16,17,17,18,18,19,19,20,20,21,21,22,22,23,23,24,24,25,25,26,26,27,27,28,28,29,29,30,30,31,31,32,32,33,33,35,35,37,37,38,38,39,39,40,40,41,41,42,42,43,43,44,44,45,45,46,46,47,47,48,48,49,49,50,50,51,51,52,52,53,53,54,54,55,55,56,56,57,57,58,58,59,59,60,60,61,61,62,62],"right_children":[2,4,6,8,10,12,14,16,18,20,22,24,26,28,30,32,34,36,38,40,42,44,46,48,50,52,54,56,58,60,62,64,66,68,-1,70,-1,72,74,76,78,80,82,84,86,88,90,92,94,96,98,100,102,104,106,108,110,112,114,116,118,120,122,-1,-1,-1,-1,-1,-1,-1,-1,-1,-1,-1,-1,-1,-1,-1,-1,-1,-1,-1,-1,-1,-1,-1,-1,-1,-1,-1,-1,-1,-1,-1,-1,-1,-1,-1,-1,-1,-1,-1,-1,-1,-1,-1,-1,-1,-1,-1,-1,-1,-1,-1,-1,-1,-1,-1,-1,-1,-1,-1,-1],"split_conditions":[6.3261137E0,1.0610832E1,7.345E-2,4.366894E0,1.853803E1,5.5882156E1,4.909524E1,1.3312E0,9.60815E2,1.153E3,1.562365E3,8.137964E0,1.5E0,1.7016453E3,1.7535001E-1,3.5224123E0,4.7E1,1.5198861E4,2.7855024E3,7.9950005E-2,3.6559498E-1,1.42928E3,5.716653E0,7.66E-3,2.945E-2,1.1181044E3,1.25E1,2.75E1,3.5E0,7.9060345E0,2.85E1,1.1173E0,7.3875E-1,2.9392056E0,5.4695964E0,5.066658E0,9.774842E0,2.5E0,3.5E0,4.3064517E3,5.1715174E0,1.1E1,2.5E0,1.7835E-1,2.206E-1,2.30037E3,3.5E0,3.5E0,4.865E-2,1.7675298E3,9.010372E0,8.817986E0,3.125E-2,1.39649995E-2,3.826362E3,1.05E1,1.1317668E3,2.85E1,3.9E1,8.610222E1,1.0425E-1,2.9288357E3,1.472835E3,-3.7562605E-2,-1.7959648E-1,4.602242E-1,1.6346762E-1,-5.5580163E-1,-2.1891123E-1,-3.1479365E-1,-4.279114E0,2.3163815E0,3.7991498E0,-1.2349865E0,2.7175248E0,-5.733895E0,5.663913E0,-2.3043015E0,2.1127737E0,4.2456717E0,7.251906E0,2.6471362E0,4.517079E0,3.835703E0,7.0440335E0,3.6952534E0,-9.4314314E-2,4.555286E0,7.3284864E0,8.883335E0,1.5125758E1,6.8266797E0,2.514586E1,5.776931E-1,5.0946293E0,6.7243156E0,1.2516541E0,8.122865E0,1.4787906E1,8.125119E0,1.4400142E1,-2.8874354E0,3.9360344E0,1.936524E1,8.987671E0,1.66309E1,4.9203033E0,1.0282928E1,2.4506128E1,3.167208E1,1.2932832E1,4.9158397E0,-7.804537E-1,8.973867E0,2.5852308E1,1.1846869E1,2.0207296E1,1.6529345E1,2.6028904E1,2.918051E1,8.2174635E0,3.4160976E1,5.2540062E1],"split_indices":[12,11,4,12,11,11,11,4,2,2,2,12,9,1,4,12,7,0,1,4,3,1,12,3,4,1,7,8,9,12,8,4,4,12,0,12,0,9,6,0,12,6,9,4,3,2,9,9,4,1,12,12,4,3,1,6,1,7,7,11,4,0,2,0,0,0,0,0,0,0,0,0,0,0,0,0,0,0,0,0,0,0,0,0,0,0,0,0,0,0,0,0,0,0,0,0,0,0,0,0,0,0,0,0,0,0,0,0,0,0,0,0,0,0,0,0,0,0,0,0,0,0,0],"split_type":[0,0,0,0,0,0,0,0,0,0,0,0,0,0,0,0,0,0,0,0,0,0,0,0,0,0,0,0,0,0,0,0,0,0,0,0,0,0,0,0,0,0,0,0,0,0,0,0,0,0,0,0,0,0,0,0,0,0,0,0,0,0,0,0,0,0,0,0,0,0,0,0,0,0,0,0,0,0,0,0,0,0,0,0,0,0,0,0,0,0,0,0,0,0,0,0,0,0,0,0,0,0,0,0,0,0,0,0,0,0,0,0,0,0,0,0,0,0,0,0,0,0,0],"sum_hessian":[4.7803E4,3.1246E4,1.6557E4,8.115E3,2.3131E4,5.315E3,1.1242E4,5.495E3,2.62E3,1.3442E4,9.689E3,3.132E3,2.183E3,8.044E3,3.198E3,3.592E3,1.903E3,6.9E1,2.551E3,8.04E2,1.2638E4,5.137E3,4.552E3,1.942E3,1.19E3,7.82E2,1.401E3,5.99E3,2.054E3,2.841E3,3.57E2,2.13E3,1.462E3,1.902E3,1E0,6.7E1,2E0,2.378E3,1.73E2,6.2E1,7.42E2,9.151E3,3.487E3,3.176E3,1.961E3,1.897E3,2.655E3,1.37E2,1.805E3,6.23E2,5.67E2,4.89E2,2.93E2,1.01E3,3.91E2,5.653E3,3.37E2,1.555E3,4.99E2,1.923E3,9.18E2,2.52E2,1.05E2,1.808E3,3.22E2,6.21E2,8.41E2,6.71E2,1.231E3,2.6E1,4.1E1,2.203E3,1.75E2,1.11E2,6.2E1,5.3E1,9E0,4.5E1,6.97E2,8.616E3,5.35E2,2.716E3,7.71E2,1.402E3,1.774E3,1.148E3,8.13E2,1.221E3,6.76E2,2.262E3,3.93E2,1.09E2,2.8E1,6.19E2,1.186E3,3.7E2,2.53E2,3.97E2,1.7E2,3.71E2,1.18E2,8.2E1,2.11E2,6.9E1,9.41E2,3.63E2,2.8E1,5.446E3,2.07E2,1.68E2,1.69E2,1.209E3,3.46E2,3.78E2,1.21E2,1.72E3,2.03E2,5.93E2,3.25E2,1.86E2,6.6E1,5.9E1,4.6E1],"tree_param":{"num_deleted":"0","num_feature":"13","num_nodes":"123","size_leaf_vector":"0"}},{"base_weights":[1.4081854E1,9.670394E0,2.6962378E1,2.1646748E0,1.243072E1,3.5731243E1,2.0711298E1,-1.2035506E-1,5.4418125E0,1.5975501E1,9.449921E0,2.9880228E1,5.407124E1,2.4540579E1,1.1609889E1,-4.7772306E-1,5.120244E-1,4.217492E-1,6.136016E0,1.1075666E1,2.3811316E1,8.464514E0,1.9789808E1,1.397169E1,3.3078426E1,4.786522E1,8.64403E1,2.1747225E1,3.879423E1,2.7424119E0,2.0533764E1,-2.3075087E-1,-1.1659935E0,1.5503714E0,1.7524052E-1,1.2344296E0,-6.9011607E0,5.503532E0,9.881768E0,9.46258E0,2.5294937E1,1.5505494E1,3.0386105E1,1.13405E1,4.1449966E0,1.5324786E1,5.9137997E1,1.7549984E1,-8.917382E0,2.7528358E1,4.666079E1,4.198507E1,6.862424E1,6.938971E1,1.1484147E2,1.9677933E1,5.2845993E1,1.5609777E1,4.7860447E1,8.29957E0,-9.850853E0,1.5071678E1,4.8983173E1,-1.140623E-1,-4.2038682E-1,-1.002998E0,-2.1621614E0,3.4647557E-1,5.613121E0,4.856817E-1,-5.649769E0,2.8125813E0,-2.0425541E0,1.687736E1,-9.446421E0,5.629897E0,-1.1622102E1,1.4240142E1,7.699093E0,1.6384457E1,6.094945E0,3.738357E1,1.2122631E1,1.9702066E1,9.841847E0,2.480505E1,4.3009975E1,9.974113E0,3.8578495E1,-9.042515E0,5.4952335E0,1.9644945E1,-1.678343E0,6.441113E1,2.4213737E1,1.5962777E1,4.9473778E1,-2.679653E1,2.8381453E1,2.485483E1,4.6354015E1,3.9670288E1,7.490261E1,3.770748E1,8.087239E1,9.46055E1,4.6489605E1,5.539426E1,9.303953E1,5.8722275E1,1.338517E2,2.4687878E1,1.0555499E1,7.4674706E1,1.5777063E1,2.9274446E1,-1.9202486E1,1.3022998E2,4.5921684E1,2.9483173E0,3.1466969E1,2.1985772E-1,-2.2353941E1,-4.87062E1,1.630342E1,6.71852E1,2.78936E1],"categories":[],"categories_nodes":[],"categories_segments":[],"categories_sizes":[],"default_left":[true,true,true,true,true,true,true,true,true,true,true,true,true,true,true,true,true,true,true,true,true,true,true,true,true,true,true,true,true,true,true,true,true,true,true,true,true,true,true,true,true,true,true,true,true,true,true,true,true,true,true,true,true,true,true,true,true,true,true,true,true,true,true,false,false,false,false,false,false,false,false,false,false,false,false,false,false,false,false,false,false,false,false,false,false,false,false,false,false,false,false,false,false,false,false,false,false,false,false,false,false,false,false,false,false,false,false,false,false,false,false,false,false,false,false,false,false,false,false,false,false,false,false,false,false,false,false],"id":6,"left_children":[1,3,5,7,9,11,13,15,17,19,21,23,25,27,29,31,33,35,37,39,41,43,45,47,49,51,53,55,57,59,61,63,65,67,69,71,73,75,77,79,81,83,85,87,89,91,93,95,97,99,101,103,105,107,109,111,113,115,117,119,121,123,125,-1,-1,-1,-1,-1,-1,-1,-1,-1,-1,-1,-1,-1,-1,-1,-1,-1,-1,-1,-1,-1,-1,-1,-1,-1,-1,-1,-1,-1,-1,-1,-1,-1,-1,-1,-1,-1,-1,-1,-1,-1,-1,-1,-1,-1,-1,-1,-1,-1,-1,-1,-1,-1,-1,-1,-1,-1,-1,-1,-1,-1,-1,-1,-1],"loss_changes":[2.716054E6,7.377495E5,6.67727E5,7.1709164E4,2.7494225E5,5.428635E5,2.4793E5,1.2755186E3,1.3707195E4,4.5628175E5,1.4395588E5,1.9537E5,2.42145E5,1.9871175E5,1.6699188E5,6.12692E2,7.1241394E2,2.8591365E3,8.133328E3,1.6761306E5,2.4931025E5,1.6040681E5,2.1519303E5,5.3066383E4,2.402425E5,1.2296925E5,8.69455E4,2.6878988E5,1.71613E5,7.426349E4,1.6273531E5,5.870282E1,1.5240845E2,2.4387275E3,2.7875613E3,2.2398662E3,3.0645112E3,6.4689453E3,4.627797E3,1.5314238E5,1.1817706E5,4.7888594E4,1.7873325E5,2.881635E5,9.200125E4,8.127553E4,2.1460438E4,2.753461E4,5.9445203E4,1.134515E5,1.8023838E5,1.31023625E5,1.25571125E5,3.6219875E4,6.895231E4,1.7948888E5,2.100145E5,1.1092409E5,8.807975E4,9.115255E4,4.092728E4,7.023925E4,6.30005E4,0E0,0E0,0E0,0E0,0E0,0E0,0E0,0E0,0E0,0E0,0E0,0E0,0E0,0E0,0E0,0E0,0E0,0E0,0E0,0E0,0E0,0E0,0E0,0E0,0E0,0E0,0E0,0E0,0E0,0E0,0E0,0E0,0E0,0E0,0E0,0E0,0E0,0E0,0E0,0E0,0E0,0E0,0E0,0E0,0E0,0E0,0E0,0E0,0E0,0E0,0E0,0E0,0E0,0E0,0E0,0E0,0E0,0E0,0E0,0E0,0E0,0E0,0E0,0E0],"parents":[2147483647,0,0,1,1,2,2,3,3,4,4,5,5,6,6,7,7,8,8,9,9,10,10,11,11,12,12,13,13,14,14,15,15,16,16,17,17,18,18,19,19,20,20,21,21,22,22,23,23,24,24,25,25,26,26,27,27,28,28,29,29,30,30,31,31,32,32,33,33,34,34,35,35,36,36,37,37,38,38,39,39,40,40,41,41,42,42,43,43,44,44,45,45,46,46,47,47,48,48,49,49,50,50,51,51,52,52,53,53,54,54,55,55,56,56,57,57,58,58,59,59,60,60,61,61,62,62],"right_children":[2,4,6,8,10,12,14,16,18,20,22,24,26,28,30,32,34,36,38,40,42,44,46,48,50,52,54,56,58,60,62,64,66,68,70,72,74,76,78,80,82,84,86,88,90,92,94,96,98,100,102,104,106,108,110,112,114,116,118,120,122,124,126,-1,-1,-1,-1,-1,-1,-1,-1,-1,-1,-1,-1,-1,-1,-1,-1,-1,-1,-1,-1,-1,-1,-1,-1,-1,-1,-1,-1,-1,-1,-1,-1,-1,-1,-1,-1,-1,-1,-1,-1,-1,-1,-1,-1,-1,-1,-1,-1,-1,-1,-1,-1,-1,-1,-1,-1,-1,-1,-1,-1,-1,-1,-1,-1],"split_conditions":[3.2496002E1,5.0587425E0,1.015E2,7.811877E0,1.85E1,1.6014999E-1,1.7686501E3,3.4621544E0,2.1217349E3,1.55E1,3.5E0,6.8852043E0,5.501557E1,2.1761836E3,2.5E0,4.9363604E3,1.334148E3,1.7807472E1,2.5E0,1.05E1,1.807329E1,1.3466082E3,3.9E1,1.71305E-1,1.04550004E-1,2.75E1,2.0225E-1,2.75E1,6.5E0,2.2977246E3,2.1E1,1.0578E0,3.303625E4,4.335105E0,4.5528975E0,2.35E1,4.7230253E0,2.113834E1,4.5E0,7.799912E2,4.237157E3,1.080228E3,1.35E1,2.85E1,2.15E1,5.5E0,4.822658E3,4.5E0,9.57255E2,1.0157777E2,7.9290676E0,1.05E1,1.05E1,7.071854E1,6.7754164E0,1.95E1,1.2838794E3,2.0386E-1,1.5255E-2,3.2875537E3,1.067E-1,3.5E0,3.5063135E3,-3.421869E-2,-1.2611605E-1,-3.0089942E-1,-6.4864844E-1,1.0394268E-1,1.6839364E0,1.4570452E-1,-1.6949307E0,8.4377444E-1,-6.1276627E-1,5.063208E0,-2.8339262E0,1.6889693E0,-3.4866307E0,4.2720428E0,2.309728E0,4.915337E0,1.8284836E0,1.1215072E1,3.6367896E0,5.91062E0,2.9525542E0,7.4415154E0,1.2902993E1,2.9922342E0,1.1573549E1,-2.7127545E0,1.6485702E0,5.8934836E0,-5.0350296E-1,1.9323341E1,7.2641215E0,4.788833E0,1.48421335E1,-8.0389595E0,8.514436E0,7.456449E0,1.3906205E1,1.1901087E1,2.2470783E1,1.1312244E1,2.4261719E1,2.838165E1,1.3946882E1,1.6618279E1,2.791186E1,1.7616684E1,4.015551E1,7.4063635E0,3.1666498E0,2.2402412E1,4.733119E0,8.782334E0,-5.760746E0,3.9068996E1,1.3776505E1,8.844952E-1,9.440091E0,6.595732E-2,-6.7061825E0,-1.461186E1,4.891026E0,2.0155561E1,8.36808E0],"split_indices":[11,12,5,11,8,4,1,12,2,8,9,12,11,0,9,2,1,11,9,6,11,1,7,3,4,8,4,8,6,1,7,4,0,12,12,8,12,11,9,1,0,1,7,8,8,9,1,9,2,11,12,6,7,11,12,8,1,3,3,0,4,6,1,0,0,0,0,0,0,0,0,0,0,0,0,0,0,0,0,0,0,0,0,0,0,0,0,0,0,0,0,0,0,0,0,0,0,0,0,0,0,0,0,0,0,0,0,0,0,0,0,0,0,0,0,0,0,0,0,0,0,0,0,0,0,0,0],"split_type":[0,0,0,0,0,0,0,0,0,0,0,0,0,0,0,0,0,0,0,0,0,0,0,0,0,0,0,0,0,0,0,0,0,0,0,0,0,0,0,0,0,0,0,0,0,0,0,0,0,0,0,0,0,0,0,0,0,0,0,0,0,0,0,0,0,0,0,0,0,0,0,0,0,0,0,0,0,0,0,0,0,0,0,0,0,0,0,0,0,0,0,0,0,0,0,0,0,0,0,0,0,0,0,0,0,0,0,0,0,0,0,0,0,0,0,0,0,0,0,0,0,0,0,0,0,0,0],"sum_hessian":[4.7803E4,3.5609E4,1.2194E4,9.575E3,2.6034E4,5.073E3,7.121E3,5.642E3,3.933E3,1.189E4,1.4144E4,3.848E3,1.225E3,5.011E3,2.11E3,3.605E3,2.037E3,4.78E2,3.455E3,7.317E3,4.573E3,1.2915E4,1.229E3,6.45E2,3.203E3,1.03E3,1.95E2,4.192E3,8.19E2,1.059E3,1.051E3,2.654E3,9.51E2,4.98E2,1.539E3,4.31E2,4.7E1,2.958E3,4.97E2,6.573E3,7.44E2,2.022E3,2.551E3,7.752E3,5.163E3,1.105E3,1.24E2,5.58E2,8.7E1,2.276E3,9.27E2,8.05E2,2.25E2,1.24E2,7.1E1,3.932E3,2.6E2,2.31E2,5.88E2,7.35E2,3.24E2,8.83E2,1.68E2,1.644E3,1.01E3,8.19E2,1.32E2,3.85E2,1.13E2,1.462E3,7.7E1,2.91E2,1.4E2,4E0,4.3E1,2.937E3,2.1E1,1.64E2,3.33E2,2.15E3,4.423E3,3.87E2,3.57E2,1.16E3,8.62E2,1.771E3,7.8E2,7.383E3,3.69E2,4.79E2,4.684E3,8.81E2,2.24E2,1.07E2,1.7E1,5.33E2,2.5E1,5.9E1,2.8E1,1.995E3,2.81E2,7.45E2,1.82E2,7.27E2,7.8E1,1.02E2,1.23E2,8E1,4.4E1,1.9E1,5.2E1,2.537E3,1.395E3,1.63E2,9.7E1,1.66E2,6.5E1,1.2E1,5.76E2,5.98E2,1.37E2,1.8E2,1.44E2,1.6E1,8.67E2,8.9E1,7.9E1],"tree_param":{"num_deleted":"0","num_feature":"13","num_nodes":"127","size_leaf_vector":"0"}},{"base_weights":[9.8672285E0,5.913181E0,1.804342E1,3.4326792E0,9.636651E0,1.3515202E1,2.4963629E1,4.209048E-2,4.9812584E0,6.158524E0,1.4082568E1,6.982233E0,1.772972E1,2.9736034E1,1.2885833E1,-1.7026941E-1,1.6212925E0,-1.654995E0,5.5489287E0,-1.6718508E0,7.67832E0,1.9900295E1,8.331462E0,2.210792E0,1.0647652E1,1.1467361E1,2.6015574E1,2.8021086E1,6.555937E1,6.7537045E0,2.9977295E1,-1.5206693E-1,-6.225603E0,-1.1781849E0,2.9236531E0,-1.9512345E-1,-1.1951203E1,-1.6709105E0,5.7805724E0,-1.3724381E1,6.327696E-2,1.0140596E1,2.864174E-1,1.7239187E1,3.297859E1,-1.9582714E0,1.1864321E1,-1.7259761E0,7.7330856E0,3.9249084E1,9.984777E0,1.2951996E1,-2.1798182E0,2.3900007E1,4.598026E1,3.4844906E1,1.6898445E1,8.3667145E1,4.037262E1,4.267828E0,5.0572975E1,4.392699E1,7.3465586E0,3.277964E-2,-7.5699174E-1,1.1041203E1,-8.112803E0,1.9103824E-1,-5.7286434E0,2.0476692E0,7.267918E0,1.5489178E0,-3.2781267E0,1.8118135E0,-1.7869549E1,2.1361479E-1,-1.6886806E1,4.6397147E0,7.508674E0,-2.164314E1,2.8091E1,-3.332747E0,3.762266E0,6.3198333E0,1.3749207E1,1.1635057E1,-3.868528E0,1.43717785E1,2.3803036E1,2.9116253E1,7.9161575E1,-5.4213643E0,1.2625443E1,8.644852E0,2.4445759E1,-4.649355E0,4.7674327E0,-3.6826096E0,1.1182727E1,3.0568813E1,1.060496E2,5.3547555E-1,1.2406303E1,1.0161592E1,2.2997267E1,-6.516863E0,2.6785715E1,2.2834606E1,6.2051403E1,5.634674E1,-5.9649963E0,1.8606503E1,4.450516E1,-4.7706633E0,2.1560667E1,8.938044E1,3.565737E1,2.3520426E1,5.7467293E1,-8.477847E0,1.0139465E1,3.3287216E1,8.369722E1,2.5737108E1,5.626006E1,-3.7096815E0,3.1938757E1],"categories":[],"categories_nodes":[],"categories_segments":[],"categories_sizes":[],"default_left":[true,true,true,true,true,true,true,true,true,true,true,true,true,true,true,true,true,true,true,true,true,true,true,true,true,true,true,true,true,true,true,true,true,true,true,true,true,true,true,true,true,true,true,true,true,true,true,true,true,true,true,true,true,true,true,true,true,true,true,true,true,true,true,false,false,false,false,false,false,false,false,false,false,false,false,false,false,false,false,false,false,false,false,false,false,false,false,false,false,false,false,false,false,false,false,false,false,false,false,false,false,false,false,false,false,false,false,false,false,false,false,false,false,false,false,false,false,false,false,false,false,false,false,false,false,false,false],"id":7,"left_children":[1,3,5,7,9,11,13,15,17,19,21,23,25,27,29,31,33,35,37,39,41,43,45,47,49,51,53,55,57,59,61,63,65,67,69,71,73,75,77,79,81,83,85,87,89,91,93,95,97,99,101,103,105,107,109,111,113,115,117,119,121,123,125,-1,-1,-1,-1,-1,-1,-1,-1,-1,-1,-1,-1,-1,-1,-1,-1,-1,-1,-1,-1,-1,-1,-1,-1,-1,-1,-1,-1,-1,-1,-1,-1,-1,-1,-1,-1,-1,-1,-1,-1,-1,-1,-1,-1,-1,-1,-1,-1,-1,-1,-1,-1,-1,-1,-1,-1,-1,-1,-1,-1,-1,-1,-1,-1],"loss_changes":[1.5453515E6,2.9758088E5,4.87944E5,1.0155155E5,1.9912912E5,2.5926762E5,3.5479525E5,2.0342295E3,5.0026375E4,8.605397E4,1.8900788E5,6.4617016E4,2.96818E5,2.6946075E5,1.828954E5,5.8841077E2,2.6248674E3,1.5735271E4,2.0465156E4,2.459418E4,1.1020359E5,9.722725E4,1.0344517E5,3.4949508E4,3.9232734E4,6.614009E4,1.02972125E5,3.1940125E5,8.8293375E4,1.3997616E5,1.4521119E5,5.9623987E2,6.109499E2,1.4279003E3,1.8536216E3,4.941058E3,1.0621434E4,1.0928684E4,2.3329625E4,4.961461E4,1.2938688E4,6.2536594E4,7.1434625E4,4.3643125E4,8.224447E4,3.683591E4,8.557944E4,1.7846914E4,2.6386438E4,2.4010977E4,4.6763625E4,8.225969E4,4.0500125E4,8.922475E4,1.26881125E5,4.089085E5,1.6224997E5,2.8631062E4,2.3423453E4,9.131347E4,3.6721797E4,6.2488125E4,4.8244297E4,0E0,0E0,0E0,0E0,0E0,0E0,0E0,0E0,0E0,0E0,0E0,0E0,0E0,0E0,0E0,0E0,0E0,0E0,0E0,0E0,0E0,0E0,0E0,0E0,0E0,0E0,0E0,0E0,0E0,0E0,0E0,0E0,0E0,0E0,0E0,0E0,0E0,0E0,0E0,0E0,0E0,0E0,0E0,0E0,0E0,0E0,0E0,0E0,0E0,0E0,0E0,0E0,0E0,0E0,0E0,0E0,0E0,0E0,0E0,0E0,0E0,0E0,0E0,0E0],"parents":[2147483647,0,0,1,1,2,2,3,3,4,4,5,5,6,6,7,7,8,8,9,9,10,10,11,11,12,12,13,13,14,14,15,15,16,16,17,17,18,18,19,19,20,20,21,21,22,22,23,23,24,24,25,25,26,26,27,27,28,28,29,29,30,30,31,31,32,32,33,33,34,34,35,35,36,36,37,37,38,38,39,39,40,40,41,41,42,42,43,43,44,44,45,45,46,46,47,47,48,48,49,49,50,50,51,51,52,52,53,53,54,54,55,55,56,56,57,57,58,58,59,59,60,60,61,61,62,62],"right_children":[2,4,6,8,10,12,14,16,18,20,22,24,26,28,30,32,34,36,38,40,42,44,46,48,50,52,54,56,58,60,62,64,66,68,70,72,74,76,78,80,82,84,86,88,90,92,94,96,98,100,102,104,106,108,110,112,114,116,118,120,122,124,126,-1,-1,-1,-1,-1,-1,-1,-1,-1,-1,-1,-1,-1,-1,-1,-1,-1,-1,-1,-1,-1,-1,-1,-1,-1,-1,-1,-1,-1,-1,-1,-1,-1,-1,-1,-1,-1,-1,-1,-1,-1,-1,-1,-1,-1,-1,-1,-1,-1,-1,-1,-1,-1,-1,-1,-1,-1,-1,-1,-1,-1,-1,-1,-1],"split_conditions":[6.4003024E0,5.6098266E0,1.17249995E-1,4.641759E0,1.61078E3,7.4297905E0,1.6311461E3,4.1937084E0,2.3495E-1,1.2715E-1,2.94555E-1,3.5476807E1,6.165E-2,2.85E1,3.5E0,8.876402E0,2.5937349E3,2.343927E1,1.5E0,3.7600003E-2,2.3285E-1,2.6356737E1,2.12746E3,6.9260902E0,8.245E-3,1.85E1,1.75E1,1.85E1,1.124832E3,6.711041E1,3.0821025E3,4.7455303E3,1.05E1,4.548621E0,3.5E0,2.2771999E-1,1.609E-1,1.9139938E1,1.4538223E1,4.4232207E3,1.644394E3,1.8384999E-1,1.0514719E3,5.9922667E0,2.294025E3,3.5E0,2.3717243E1,1.7627631E3,5.41E-2,2.5420285E2,6.265E-2,1.25E1,3.7981472E3,9.25799E0,2.25E1,1.35E1,2.05E1,2.635E2,1.096975E3,3.266801E3,2.85E1,3.3484695E1,3.9E1,9.833893E-3,-2.2709753E-1,3.312361E0,-2.4338412E0,5.731147E-2,-1.7185931E0,6.143008E-1,2.1803756E0,4.6467534E-1,-9.834381E-1,5.4354405E-1,-5.3608646E0,6.408444E-2,-5.066042E0,1.3919145E0,2.2526023E0,-6.4929423E0,8.4273E0,-9.998241E-1,1.1286799E0,1.8959501E0,4.124762E0,3.4905174E0,-1.1605585E0,4.311534E0,7.140911E0,8.734877E0,2.3748474E1,-1.6264094E0,3.7876332E0,2.5934556E0,7.333728E0,-1.3948065E0,1.4302299E0,-1.1047829E0,3.354818E0,9.170645E0,3.181488E1,1.6064267E-1,3.7218912E0,3.0484776E0,6.8991804E0,-1.9550589E0,8.035715E0,6.8503823E0,1.8615421E1,1.6904022E1,-1.7894989E0,5.581951E0,1.3351549E1,-1.4311991E0,6.4682E0,2.6814133E1,1.0697212E1,7.056128E0,1.7240189E1,-2.5433543E0,3.0418398E0,9.986165E0,2.5109167E1,7.7211328E0,1.687802E1,-1.1129045E0,9.581628E0],"split_indices":[12,12,4,12,2,12,1,12,4,4,3,11,4,8,9,11,2,11,6,4,3,11,2,12,3,7,7,8,1,11,1,2,8,12,6,3,4,11,11,0,0,4,1,12,2,9,11,0,4,11,4,7,0,12,7,8,8,5,2,0,8,11,7,0,0,0,0,0,0,0,0,0,0,0,0,0,0,0,0,0,0,0,0,0,0,0,0,0,0,0,0,0,0,0,0,0,0,0,0,0,0,0,0,0,0,0,0,0,0,0,0,0,0,0,0,0,0,0,0,0,0,0,0,0,0,0,0],"split_type":[0,0,0,0,0,0,0,0,0,0,0,0,0,0,0,0,0,0,0,0,0,0,0,0,0,0,0,0,0,0,0,0,0,0,0,0,0,0,0,0,0,0,0,0,0,0,0,0,0,0,0,0,0,0,0,0,0,0,0,0,0,0,0,0,0,0,0,0,0,0,0,0,0,0,0,0,0,0,0,0,0,0,0,0,0,0,0,0,0,0,0,0,0,0,0,0,0,0,0,0,0,0,0,0,0,0,0,0,0,0,0,0,0,0,0,0,0,0,0,0,0,0,0,0,0,0,0],"sum_hessian":[4.7803E4,3.2222E4,1.5581E4,1.934E4,1.2882E4,9.42E3,6.161E3,6.064E3,1.3276E4,7.229E3,5.653E3,3.695E3,5.725E3,4.415E3,1.746E3,5.346E3,7.18E2,1.046E3,1.223E4,1.175E3,6.054E3,2.809E3,2.844E3,1.606E3,2.089E3,3.262E3,2.463E3,4.215E3,2E2,1.286E3,4.6E2,5.331E3,1.5E1,2.28E2,4.9E2,9.17E2,1.29E2,3.8E2,1.185E4,1.47E2,1.028E3,4.541E3,1.513E3,2.336E3,4.73E2,7.27E2,2.117E3,9.38E2,6.68E2,4.6E1,2.043E3,2.942E3,3.2E2,2.229E3,2.34E2,2.611E3,1.604E3,1.15E2,8.5E1,1.218E3,6.8E1,2.84E2,1.76E2,4.084E3,1.247E3,1E0,1.4E1,1.76E2,5.2E1,4.09E2,8.1E1,5.86E2,3.31E2,3.9E1,9E1,3.39E2,4.1E1,7.14E3,4.71E3,1.24E2,2.3E1,5.36E2,4.92E2,2.207E3,2.334E3,4.05E2,1.108E3,1.628E3,7.08E2,4.38E2,3.5E1,5.88E2,1.39E2,1.687E3,4.3E2,6.47E2,2.91E2,1.55E2,5.13E2,4.2E1,4E0,4.17E2,1.626E3,2.304E3,6.38E2,2.79E2,4.1E1,2.17E3,5.9E1,1.95E2,3.9E1,9.75E2,1.636E3,2.84E2,1.32E3,1.02E2,1.3E1,4.4E1,4.1E1,3.84E2,8.34E2,4.6E1,2.2E1,1.16E2,1.68E2,1.22E2,5.4E1],"tree_param":{"num_deleted":"0","num_feature":"13","num_nodes":"127","size_leaf_vector":"0"}},{"base_weights":[6.9137487E0,4.611763E0,1.4162975E1,2.2634969E0,7.0998607E0,9.243115E0,2.0981405E1,1.4351203E-1,3.4505842E0,1.099662E1,4.2639074E0,8.453712E0,2.7921642E1,1.9003048E1,4.1379814E1,-1.3090585E-1,1.1375628E0,-4.186171E0,3.6979935E0,9.605393E0,2.2432877E1,6.2100706E0,1.0734136E0,9.612646E0,-4.24349E0,2.6241255E1,1.1207006E2,1.5192558E1,3.0375885E1,3.8197266E1,9.3095955E1,-1.19286284E-1,-6.8879833E0,-1.2977769E0,1.7240711E0,-1.2409932E1,-2.5542364E0,2.478526E0,4.53462E0,1.4170193E1,4.914619E0,2.683472E1,-9.927318E0,5.5561943E0,2.892397E1,-7.102612E-1,7.7183614E0,5.086572E0,1.3705113E1,6.863917E-1,-1.3131124E1,2.7224903E1,-6.939485E1,1.4594093E1,1.3279053E2,2.0632845E1,1.0309136E1,4.0177402E1,1.2681065E1,3.1792513E1,6.076209E1,6.0987064E1,1.3983443E2,1.2933482E-1,-4.0646923E-1,-2.7438083E0,-8.502769E0,-1.619896E0,9.937288E0,1.7985249E0,-1.3007298E1,-1.765085E1,1.6607931E1,-6.26007E0,6.4344543E-1,4.3350344E0,9.573089E-1,8.131203E0,3.4798877E0,1.2498216E1,5.3031837E1,2.7376087E0,1.5703303E1,3.6509174E1,1.9294117E1,-1.4503167E1,2.716597E1,3.3334835E0,9.803516E0,3.9645454E1,1.6581783E1,1.2368251E0,-8.773218E0,2.4998795E1,4.5061855E0,1.4175372E0,1.1516822E1,6.1837687E0,1.5772174E1,-1.303567E0,3.7130836E1,3.615182E0,-1.6757639E1,2.5461117E1,1.1384958E2,1.8440363E1,3.5796642E1,1.2631692E1,-1.1088783E1,3.1693544E1,6.1210022E1,3.7557164E-1,4.579888E1,2.9497534E1,6.262687E1,6.8683044E1,1.3988227E1,-3.3472977E1,6.951593E1,5.5948273E1,1.5580928E2],"categories":[],"categories_nodes":[],"categories_segments":[],"categories_sizes":[],"default_left":[true,true,true,true,true,true,true,true,true,true,true,true,true,true,true,true,true,true,true,true,true,true,true,true,true,true,true,true,true,true,true,true,true,true,true,true,true,true,true,true,true,true,true,true,true,true,true,true,true,true,true,true,false,false,false,true,true,true,true,true,true,true,true,false,false,false,false,false,false,false,false,false,false,false,false,false,false,false,false,false,false,false,false,false,false,false,false,false,false,false,false,false,false,false,false,false,false,false,false,false,false,false,false,false,false,false,false,false,false,false,false,false,false,false,false,false,false,false,false,false,false],"id":8,"left_children":[1,3,5,7,9,11,13,15,17,19,21,23,25,27,29,31,33,35,37,39,41,43,45,47,49,51,53,55,57,59,61,63,65,67,69,71,73,75,77,79,81,83,85,87,89,91,93,95,97,99,101,103,-1,-1,-1,105,107,109,111,113,115,117,119,-1,-1,-1,-1,-1,-1,-1,-1,-1,-1,-1,-1,-1,-1,-1,-1,-1,-1,-1,-1,-1,-1,-1,-1,-1,-1,-1,-1,-1,-1,-1,-1,-1,-1,-1,-1,-1,-1,-1,-1,-1,-1,-1,-1,-1,-1,-1,-1,-1,-1,-1,-1,-1,-1,-1,-1,-1,-1],"loss_changes":[7.9766925E5,2.1198106E5,3.8628625E5,4.6979516E4,1.9463912E5,9.846619E4,1.94049E5,1.8283561E3,2.2625984E4,1.1783981E5,6.3314953E4,9.457131E4,3.537908E4,1.9034725E5,6.655894E4,4.116139E2,2.0733408E3,5.014462E3,1.1815375E4,1.416165E5,1.1479181E5,9.391236E4,4.5815113E4,1.0897406E5,2.3581473E4,2.7006594E4,8.1607812E3,8.745906E4,1.9096394E5,5.6310625E4,2.7489203E4,3.745442E2,3.6897644E1,1.0366636E3,1.3055593E3,9.722122E3,3.736802E3,1.3323027E4,2.604775E4,2.1720094E5,7.664231E4,5.094503E4,1.6858121E4,5.8102344E4,2.2764406E4,4.7862234E4,4.529273E4,6.5972766E4,4.7958438E4,2.5213865E4,1.1720887E4,3.7589938E4,0E0,0E0,0E0,5.1204188E4,8.666406E4,1.24750875E5,1.6095758E5,2.0514156E4,3.1642688E4,1.5217098E4,3.3433594E3,0E0,0E0,0E0,0E0,0E0,0E0,0E0,0E0,0E0,0E0,0E0,0E0,0E0,0E0,0E0,0E0,0E0,0E0,0E0,0E0,0E0,0E0,0E0,0E0,0E0,0E0,0E0,0E0,0E0,0E0,0E0,0E0,0E0,0E0,0E0,0E0,0E0,0E0,0E0,0E0,0E0,0E0,0E0,0E0,0E0,0E0,0E0,0E0,0E0,0E0,0E0,0E0,0E0,0E0,0E0,0E0,0E0,0E0],"parents":[2147483647,0,0,1,1,2,2,3,3,4,4,5,5,6,6,7,7,8,8,9,9,10,10,11,11,12,12,13,13,14,14,15,15,16,16,17,17,18,18,19,19,20,20,21,21,22,22,23,23,24,24,25,25,26,26,27,27,28,28,29,29,30,30,31,31,32,32,33,33,34,34,35,35,36,36,37,37,38,38,39,39,40,40,41,41,42,42,43,43,44,44,45,45,46,46,47,47,48,48,49,49,50,50,51,51,55,55,56,56,57,57,58,58,59,59,60,60,61,61,62,62],"right_children":[2,4,6,8,10,12,14,16,18,20,22,24,26,28,30,32,34,36,38,40,42,44,46,48,50,52,54,56,58,60,62,64,66,68,70,72,74,76,78,80,82,84,86,88,90,92,94,96,98,100,102,104,-1,-1,-1,106,108,110,112,114,116,118,120,-1,-1,-1,-1,-1,-1,-1,-1,-1,-1,-1,-1,-1,-1,-1,-1,-1,-1,-1,-1,-1,-1,-1,-1,-1,-1,-1,-1,-1,-1,-1,-1,-1,-1,-1,-1,-1,-1,-1,-1,-1,-1,-1,-1,-1,-1,-1,-1,-1,-1,-1,-1,-1,-1,-1,-1,-1,-1],"split_conditions":[6.7731104E0,1.6573795E1,9.285E-2,4.7827682E0,1.025E2,1.2251567E2,7.9897995E1,4.1071644E0,1.6555E-1,3.5E0,1.498526E3,1.12739995E-1,9.205E-2,1.071215E3,8.861357E0,9.098527E0,2.31796E3,5.7400003E-2,2.2731401E3,1.0860798E3,5.5E0,2.85E1,2.05685E3,5.085E-2,1.2371001E-1,5.502717E2,1.3353384E3,1.125E2,2.2756E-1,1.397E-1,1.74605E2,1.1015501E0,7.25E1,4.771999E0,1.5742647E1,3.9909182E3,5.8208904E0,9.243783E2,3.35255E-1,2.75E1,2.45187E3,2.3450303E3,7.5E0,1.25E1,2.9741502E-1,2.81645E-1,2.94735E-1,8.846228E0,7.2097816E0,5.847E2,1.1145898E3,3.680027E2,-2.0818457E1,4.378228E0,3.983716E1,1.75E1,1.7559999E-1,1.37181E3,2.85E1,7.71725E2,8.322514E0,6.5753125E2,9.087942E0,3.880045E-2,-1.2194077E-1,-8.231425E-1,-2.5508308E0,-4.8596883E-1,2.9811866E0,5.3955746E-1,-3.9021897E0,-5.295255E0,4.9823794E0,-1.878021E0,1.9303364E-1,1.3005104E0,2.8719267E-1,2.4393609E0,1.0439664E0,3.7494648E0,1.5909552E1,8.212826E-1,4.7109914E0,1.0952753E1,5.788235E0,-4.3509502E0,8.149792E0,1.0000451E0,2.941055E0,1.1893637E1,4.974535E0,3.7104756E-1,-2.6319656E0,7.4996386E0,1.3518558E0,4.2526117E-1,3.4550467E0,1.8551307E0,4.7316523E0,-3.9107013E-1,1.1139252E1,1.0845547E0,-5.027292E0,7.638335E0,3.4154877E1,5.5321093E0,1.0738993E1,3.7895076E0,-3.3266351E0,9.508063E0,1.8363007E1,1.12671494E-1,1.3739665E1,8.84926E0,1.8788061E1,2.0604914E1,4.1964684E0,-1.0041893E1,2.085478E1,1.6784483E1,4.6742786E1],"split_indices":[12,11,4,12,5,11,11,12,4,9,1,3,4,2,12,11,2,4,2,1,9,8,2,4,3,11,0,5,3,4,2,4,5,12,11,0,12,1,3,8,2,1,6,7,3,3,3,12,12,2,0,11,0,0,0,7,3,2,8,2,12,1,12,0,0,0,0,0,0,0,0,0,0,0,0,0,0,0,0,0,0,0,0,0,0,0,0,0,0,0,0,0,0,0,0,0,0,0,0,0,0,0,0,0,0,0,0,0,0,0,0,0,0,0,0,0,0,0,0,0,0],"split_type":[0,0,0,0,0,0,0,0,0,0,0,0,0,0,0,0,0,0,0,0,0,0,0,0,0,0,0,0,0,0,0,0,0,0,0,0,0,0,0,0,0,0,0,0,0,0,0,0,0,0,0,0,0,0,0,0,0,0,0,0,0,0,0,0,0,0,0,0,0,0,0,0,0,0,0,0,0,0,0,0,0,0,0,0,0,0,0,0,0,0,0,0,0,0,0,0,0,0,0,0,0,0,0,0,0,0,0,0,0,0,0,0,0,0,0,0,0,0,0,0,0],"sum_hessian":[4.7803E4,3.6283E4,1.152E4,1.8667E4,1.7616E4,6.693E3,4.827E3,6.701E3,1.1966E4,7.419E3,1.0197E4,6.423E3,2.7E2,4.402E3,4.25E2,5.252E3,1.449E3,3.75E2,1.1591E4,6.616E3,8.03E2,6.333E3,3.864E3,5.886E3,5.37E2,2.66E2,4E0,3.299E3,1.103E3,4.02E2,2.3E1,5.244E3,8E0,2.81E2,1.168E3,6.1E1,3.14E2,4.718E3,6.873E3,3.352E3,3.264E3,7.07E2,9.6E1,6.157E3,1.76E2,3.047E3,8.17E2,2.796E3,3.09E3,3.46E2,1.91E2,2.64E2,2E0,1E0,3E0,1.559E3,1.74E3,7.09E2,3.94E2,3.15E2,8.7E1,1.5E1,8E0,2.811E3,2.433E3,3E0,5E0,2.74E2,7E0,1.163E3,5E0,5.2E1,9E0,1.45E2,1.69E2,2.124E3,2.594E3,1.557E3,5.316E3,3.215E3,1.37E2,2.717E3,5.47E2,3.08E2,3.99E2,8.6E1,1E1,4.043E3,2.114E3,9.3E1,8.3E1,2.455E3,5.92E2,1.27E2,6.9E2,1.781E3,1.015E3,6.67E2,2.423E3,3.29E2,1.7E1,3.4E1,1.57E2,2.6E2,4E0,1.364E3,1.95E2,1.57E3,1.7E2,5.07E2,2.02E2,2.88E2,1.06E2,2.95E2,2E1,7.4E1,1.3E1,1E0,1.4E1,2E0,6E0],"tree_param":{"num_deleted":"0","num_feature":"13","num_nodes":"121","size_leaf_vector":"0"}},{"base_weights":[4.846727E0,2.1232991E0,8.218557E0,8.6703855E-1,3.476795E0,1.4271431E1,6.42713E0,1.0075094E0,-1.1350475E1,1.23939E0,5.2965016E0,-4.699563E0,1.5319095E1,8.302725E0,1.5713949E0,-5.35701E-2,1.8572536E0,-1.796934E1,-5.7540812E0,3.6530914E0,-1.0705475E0,7.736798E0,1.8774426E0,3.816539E0,-1.0743052E1,1.6152346E1,-5.214704E0,5.8756566E0,1.3200351E1,-3.648966E0,5.10185E0,7.643037E-3,-3.4112947E0,-1.2642325E0,2.422325E0,-1.9583376E1,7.252617E0,3.6364467E0,-1.1113042E1,-5.0673217E-1,5.780548E0,1.1149936E0,-4.526659E0,6.9819374E0,1.8847038E1,-5.638024E-1,7.098435E0,-2.4467516E0,2.6797546E1,1.9941942E1,-1.1938685E1,1.4984132E1,3.627722E1,-1.811116E0,-3.1060562E1,1.013562E1,-3.1631882E0,2.0905537E1,8.952907E0,-2.052465E-1,-1.2897991E1,7.236E0,-1.647631E1,-8.456269E-3,3.1790491E1,-2.4880946E0,-1.0589555E1,-6.1512226E-1,-6.705425E0,1.8989265E0,5.373731E0,-2.3916224E1,-6.4597235E0,2.4592075E0,1.3213127E1,2.6499998E1,-2.6589885E0,-1.5093909E1,8.310253E0,3.7190833E0,-4.8307896E0,7.946979E0,-2.3126416E0,-1.7598022E0,5.6003833E0,-7.0913982E0,1.3861856E0,9.201689E0,3.0051858E0,4.0388027E1,1.6280998E1,9.850673E-1,-9.078227E0,4.7482843E0,2.617566E1,-9.5017805E0,2.6332293E1,6.773222E1,1.7270733E1,-4.765461E0,2.5836515E1,-9.044635E0,-2.3203007E1,1.2845847E1,2.1804838E1,3.9433743E1,-8.8964176E-1,1.3232658E0,-1.1017191E1,-6.184197E1,-2.4565573E1,1.3610805E1,4.7191377E0,1.2395077E1,-5.1280584E0,1.5968422E1,2.9723022E1,8.448243E0,8.3383675E1,2.7685425E0,-8.0468645E0,-1.8113886E1,-2.9316523E0,3.2019962E1,5.9483204E0,-2.3833582E1,-1.9159656E0],"categories":[],"categories_nodes":[],"categories_segments":[],"categories_sizes":[],"default_left":[true,true,true,true,true,true,true,true,true,true,true,true,true,true,true,true,true,true,true,true,true,true,true,true,true,true,true,true,true,true,true,true,true,true,true,true,true,true,true,true,true,true,true,true,true,true,true,true,true,true,true,true,true,true,true,true,true,true,true,true,true,true,true,false,false,false,false,false,false,false,false,false,false,false,false,false,false,false,false,false,false,false,false,false,false,false,false,false,false,false,false,false,false,false,false,false,false,false,false,false,false,false,false,false,false,false,false,false,false,false,false,false,false,false,false,false,false,false,false,false,false,false,false,false,false,false,false],"id":9,"left_children":[1,3,5,7,9,11,13,15,17,19,21,23,25,27,29,31,33,35,37,39,41,43,45,47,49,51,53,55,57,59,61,63,65,67,69,71,73,75,77,79,81,83,85,87,89,91,93,95,97,99,101,103,105,107,109,111,113,115,117,119,121,123,125,-1,-1,-1,-1,-1,-1,-1,-1,-1,-1,-1,-1,-1,-1,-1,-1,-1,-1,-1,-1,-1,-1,-1,-1,-1,-1,-1,-1,-1,-1,-1,-1,-1,-1,-1,-1,-1,-1,-1,-1,-1,-1,-1,-1,-1,-1,-1,-1,-1,-1,-1,-1,-1,-1,-1,-1,-1,-1,-1,-1,-1,-1,-1,-1],"loss_changes":[4.3896362E5,4.4964258E4,2.3150988E5,2.3552605E4,5.1822625E4,9.70035E4,1.5010406E5,1.2228225E4,5.675119E3,3.1845584E4,5.855697E4,1.3216545E4,7.916575E4,1.4125731E5,8.468719E4,1.2398243E3,1.3286707E4,3.0323809E3,4.3682305E3,2.4720547E4,2.2053639E4,3.422025E4,3.728524E4,1.5466797E4,5.741283E3,1.038885E5,1.5866072E4,3.0622497E5,1.28725875E5,5.9049203E4,1.2634507E5,3.0319834E3,6.89365E2,4.075259E3,9.840738E3,3.6553125E3,1.10362E2,4.6764155E3,4.37812E3,1.730391E4,3.241998E4,2.3078258E4,1.7161336E4,3.3843094E4,1.3713961E4,2.6305283E4,4.1661324E4,1.7508348E4,7.7996875E3,9.9696045E2,4.5170664E3,6.0975188E4,2.8543344E4,4.660291E3,2.6792402E3,1.0167556E5,7.7955836E4,6.0427938E4,9.474191E4,3.1549992E4,2.6094531E4,7.943447E4,2.641407E4,0E0,0E0,0E0,0E0,0E0,0E0,0E0,0E0,0E0,0E0,0E0,0E0,0E0,0E0,0E0,0E0,0E0,0E0,0E0,0E0,0E0,0E0,0E0,0E0,0E0,0E0,0E0,0E0,0E0,0E0,0E0,0E0,0E0,0E0,0E0,0E0,0E0,0E0,0E0,0E0,0E0,0E0,0E0,0E0,0E0,0E0,0E0,0E0,0E0,0E0,0E0,0E0,0E0,0E0,0E0,0E0,0E0,0E0,0E0,0E0,0E0,0E0,0E0,0E0],"parents":[2147483647,0,0,1,1,2,2,3,3,4,4,5,5,6,6,7,7,8,8,9,9,10,10,11,11,12,12,13,13,14,14,15,15,16,16,17,17,18,18,19,19,20,20,21,21,22,22,23,23,24,24,25,25,26,26,27,27,28,28,29,29,30,30,31,31,32,32,33,33,34,34,35,35,36,36,37,37,38,38,39,39,40,40,41,41,42,42,43,43,44,44,45,45,46,46,47,47,48,48,49,49,50,50,51,51,52,52,53,53,54,54,55,55,56,56,57,57,58,58,59,59,60,60,61,61,62,62],"right_children":[2,4,6,8,10,12,14,16,18,20,22,24,26,28,30,32,34,36,38,40,42,44,46,48,50,52,54,56,58,60,62,64,66,68,70,72,74,76,78,80,82,84,86,88,90,92,94,96,98,100,102,104,106,108,110,112,114,116,118,120,122,124,126,-1,-1,-1,-1,-1,-1,-1,-1,-1,-1,-1,-1,-1,-1,-1,-1,-1,-1,-1,-1,-1,-1,-1,-1,-1,-1,-1,-1,-1,-1,-1,-1,-1,-1,-1,-1,-1,-1,-1,-1,-1,-1,-1,-1,-1,-1,-1,-1,-1,-1,-1,-1,-1,-1,-1,-1,-1,-1,-1,-1,-1,-1,-1,-1],"split_conditions":[6.012532E0,5.3108025E0,4.55E1,2.2608086E1,1.78929E3,3.5E0,1.7750719E3,8.593376E0,1.90245E3,1.85E1,3.32215E-1,1.1650635E3,4.15E1,1.8102502E3,3.3223188E3,5.084717E0,1.97364E3,4.4E1,3.14365E-1,2.0495E-1,2.35735E-1,2.85E1,1.5E0,1.3E1,5.5E0,2.85E1,7.5981417E0,1.0641453E3,2.6595502E2,2.1827974E3,4.7455654E3,5.082673E0,2.85E1,2.25E1,2.5E0,2.865E2,3.110775E3,2.7E1,2.769745E3,4.5E0,1.459138E3,1.9868848E3,2.85E1,2.25E1,1.2470725E3,1.847286E1,3.9E1,6.67849E1,1.65E1,8.848E1,7.759947E0,1.35E1,7.756693E3,3.0675007E1,7.630094E0,1.85E1,4.5E0,2.1739922E3,8.709366E0,1.6047E-1,2.75E1,3.4325327E3,2.2150001E-1,-2.5368808E-3,9.5371475E0,-7.464284E-1,-3.1768665E0,-1.8453668E-1,-2.0116274E0,5.6967795E-1,1.6121194E0,-7.174867E0,-1.9379171E0,7.377623E-1,3.9639382E0,7.95E0,-7.976966E-1,-4.528173E0,2.493076E0,1.115725E0,-1.4492369E0,2.3840938E0,-6.937925E-1,-5.279407E-1,1.6801151E0,-2.1274195E0,4.158557E-1,2.7605066E0,9.015558E-1,1.2116408E1,4.8842998E0,2.9552022E-1,-2.7234683E0,1.4244853E0,7.852698E0,-2.8505342E0,7.8996882E0,2.0319668E1,5.18122E0,-1.4296384E0,7.750955E0,-2.7133906E0,-6.960902E0,3.8537543E0,6.541452E0,1.1830123E1,-2.6689255E-1,3.9697975E-1,-3.3051574E0,-1.8552591E1,-7.3696723E0,4.0832415E0,1.4157413E0,3.7185233E0,-1.5384176E0,4.790527E0,8.916907E0,2.534473E0,2.5015104E1,8.305628E-1,-2.4140594E0,-5.434166E0,-8.7949574E-1,9.605989E0,1.7844962E0,-7.150075E0,-5.747897E-1],"split_indices":[12,12,5,11,2,5,1,11,2,8,3,1,7,0,0,12,2,7,3,4,3,8,9,7,8,8,12,1,2,1,1,12,8,7,9,5,0,5,2,7,1,0,8,8,1,11,8,11,8,2,12,7,0,11,12,8,8,0,12,3,8,0,4,0,0,0,0,0,0,0,0,0,0,0,0,0,0,0,0,0,0,0,0,0,0,0,0,0,0,0,0,0,0,0,0,0,0,0,0,0,0,0,0,0,0,0,0,0,0,0,0,0,0,0,0,0,0,0,0,0,0,0,0,0,0,0,0],"split_type":[0,0,0,0,0,0,0,0,0,0,0,0,0,0,0,0,0,0,0,0,0,0,0,0,0,0,0,0,0,0,0,0,0,0,0,0,0,0,0,0,0,0,0,0,0,0,0,0,0,0,0,0,0,0,0,0,0,0,0,0,0,0,0,0,0,0,0,0,0,0,0,0,0,0,0,0,0,0,0,0,0,0,0,0,0,0,0,0,0,0,0,0,0,0,0,0,0,0,0,0,0,0,0,0,0,0,0,0,0,0,0,0,0,0,0,0,0,0,0,0,0,0,0,0,0,0,0],"sum_hessian":[4.7803E4,2.6445E4,2.1358E4,1.3716E4,1.2729E4,4.876E3,1.6482E4,1.3561E4,1.55E2,5.71E3,7.019E3,2.55E2,4.621E3,1.1889E4,4.593E3,6.031E3,7.53E3,7E1,8.5E1,2.792E3,2.918E3,4.095E3,2.924E3,1.06E2,1.49E2,4.441E3,1.8E2,7.951E3,3.938E3,1.853E3,2.74E3,5.924E3,1.07E2,1.154E3,6.376E3,6.6E1,4E0,3.1E1,5.4E1,9.45E2,1.847E3,1.788E3,1.13E3,3.836E3,2.59E2,1.993E3,9.31E2,8.4E1,2.2E1,5E0,1.44E2,4.199E3,2.42E2,1.6E2,2E1,5.404E3,2.547E3,1.398E3,2.54E3,1.351E3,5.02E2,2.494E3,2.46E2,5.922E3,2E0,9.6E1,1.1E1,1.032E3,1.22E2,5.417E3,9.59E2,4.9E1,1.7E1,3E0,1E0,6E0,2.5E1,4.5E1,9E0,4.78E2,4.67E2,1.457E3,3.9E2,1.09E3,6.98E2,7.88E2,3.42E2,2.461E3,1.375E3,2.6E1,2.33E2,1.687E3,3.06E2,8.3E2,1.01E2,6.8E1,1.6E1,3E0,1.9E1,1E0,4E0,1.16E2,2.8E1,3.199E3,1E3,2.23E2,1.9E1,1.2E2,4E1,2E0,1.8E1,3.291E3,2.113E3,2.85E2,2.262E3,8.98E2,5E2,2.524E3,1.6E1,9.8E2,3.71E2,3.29E2,1.73E2,1.22E2,2.372E3,1.63E2,8.3E1],"tree_param":{"num_deleted":"0","num_feature":"13","num_nodes":"127","size_leaf_vector":"0"}},{"base_weights":[3.394793E0,1.9627686E0,6.92432E0,-1.1304117E0,2.4809036E0,5.687615E0,1.7810669E1,-9.617013E0,-6.7009485E-1,5.4077673E0,1.2619917E0,6.0909905E0,-1.7077148E1,2.5612326E1,1.1622274E0,-8.534941E0,-2.7325321E1,3.8427624E-1,-4.6127787E0,4.0496864E0,1.3365837E1,-3.0792162E0,1.9937589E0,4.727312E0,1.2824592E1,-1.8609554E1,6.879283E1,2.171811E1,5.3969776E1,-2.6096013E0,2.2389406E1,-1.1558824E1,-1.3315308E-1,-3.850597E1,-1.064382E1,-6.503388E-1,1.162607E1,-2.2151883E0,-1.3049588E1,1.0348488E1,2.6164048E0,6.004285E0,2.3459063E1,4.991645E0,-5.458284E0,1.7598858E0,1.6942205E1,4.039271E0,2.094159E1,1.1376828E1,3.8501034E1,-1.6183388E1,-6.624243E1,2.0597809E1,7.7991905E1,3.4192142E1,7.852301E0,6.846619E1,3.304673E1,-3.592192E1,2.7322795E0,9.629491E0,6.683248E1,-1.0046269E0,-1.5096075E1,1.995131E1,-6.155829E0,-1.0114338E1,-4.1117012E1,-1.4502262E1,-6.651433E-1,-8.926672E-1,1.6023285E1,1.03240795E1,4.5841248E1,-6.963324E0,-1.8797707E-2,1.1336078E1,-1.5057122E1,7.463034E0,1.8749773E1,5.969309E0,-1.141638E0,3.8538792E0,1.3253209E1,1.8001438E1,3.781192E1,-2.096656E-2,1.2482895E1,-7.3381376E0,1.345893E0,5.4431324E0,7.740197E-1,2.9706114E1,8.302893E0,1.004384E1,1.9351075E0,3.0022615E1,7.7066083E0,1.0567734E1,3.2549343E1,6.277554E1,3.0908522E1,-1.35706E1,-5.352737E1,-2.1951843E1,-7.4571106E1,2.7155926E1,4.5480923E1,-1.0994294E1,1.5194215E1,-8.507527E0,7.096549E1,1.441397E1,7.432005E1,-1.7956987E1,-4.909647E1,1.2414172E1,-5.1657224E0,1.670704E1,-9.885942E0,1.06385155E2,2.8643456E1],"categories":[],"categories_nodes":[],"categories_segments":[],"categories_sizes":[],"default_left":[true,true,true,true,true,true,true,true,true,true,true,true,true,true,true,true,true,true,true,true,true,true,true,true,true,true,true,true,true,true,true,true,true,true,true,true,true,true,true,true,true,true,true,true,true,true,true,true,true,true,true,true,true,false,false,true,true,true,true,true,true,true,true,false,false,false,false,false,false,false,false,false,false,false,false,false,false,false,false,false,false,false,false,false,false,false,false,false,false,false,false,false,false,false,false,false,false,false,false,false,false,false,false,false,false,false,false,false,false,false,false,false,false,false,false,false,false,false,false,false,false,false,false],"id":10,"left_children":[1,3,5,7,9,11,13,15,17,19,21,23,25,27,29,31,33,35,37,39,41,43,45,47,49,51,53,55,57,59,61,63,65,67,69,71,73,75,77,79,81,83,85,87,89,91,93,95,97,99,101,103,105,-1,-1,107,109,111,113,115,117,119,121,-1,-1,-1,-1,-1,-1,-1,-1,-1,-1,-1,-1,-1,-1,-1,-1,-1,-1,-1,-1,-1,-1,-1,-1,-1,-1,-1,-1,-1,-1,-1,-1,-1,-1,-1,-1,-1,-1,-1,-1,-1,-1,-1,-1,-1,-1,-1,-1,-1,-1,-1,-1,-1,-1,-1,-1,-1,-1,-1,-1],"loss_changes":[2.4160556E5,5.450693E4,1.856505E5,1.9057404E4,1.0391347E5,1.1388747E5,1.827191E5,4.5763633E3,1.9248922E4,9.250305E4,6.5339258E4,1.1174509E5,2.9703164E4,1.0461981E5,3.608781E4,6.0450938E3,2.201289E3,4.2506977E4,1.9733861E4,6.603047E4,9.258781E4,5.6996984E4,6.1500508E4,1.128932E5,7.57675E4,2.3543398E4,1.6693555E2,1.4571194E5,3.2617969E4,6.825317E4,3.791855E4,6.518084E3,7.864398E3,1.7718262E2,2.5986896E2,1.353783E4,1.3247457E4,7.946585E3,1.074498E4,3.2731578E4,7.513014E4,1.1219141E4,4.052225E4,2.5384555E4,2.9326523E4,6.2924273E4,2.9636906E4,1.22738266E5,4.928575E4,3.2923594E4,1.8148906E4,1.9178262E4,2.0518398E3,0E0,0E0,3.4031938E4,5.565345E4,1.349325E4,3.6611508E4,1.1662414E4,2.5374906E4,7.6237227E3,1.9609938E4,0E0,0E0,0E0,0E0,0E0,0E0,0E0,0E0,0E0,0E0,0E0,0E0,0E0,0E0,0E0,0E0,0E0,0E0,0E0,0E0,0E0,0E0,0E0,0E0,0E0,0E0,0E0,0E0,0E0,0E0,0E0,0E0,0E0,0E0,0E0,0E0,0E0,0E0,0E0,0E0,0E0,0E0,0E0,0E0,0E0,0E0,0E0,0E0,0E0,0E0,0E0,0E0,0E0,0E0,0E0,0E0,0E0,0E0,0E0,0E0],"parents":[2147483647,0,0,1,1,2,2,3,3,4,4,5,5,6,6,7,7,8,8,9,9,10,10,11,11,12,12,13,13,14,14,15,15,16,16,17,17,18,18,19,19,20,20,21,21,22,22,23,23,24,24,25,25,26,26,27,27,28,28,29,29,30,30,31,31,32,32,33,33,34,34,35,35,36,36,37,37,38,38,39,39,40,40,41,41,42,42,43,43,44,44,45,45,46,46,47,47,48,48,49,49,50,50,51,51,52,52,55,55,56,56,57,57,58,58,59,59,60,60,61,61,62,62],"right_children":[2,4,6,8,10,12,14,16,18,20,22,24,26,28,30,32,34,36,38,40,42,44,46,48,50,52,54,56,58,60,62,64,66,68,70,72,74,76,78,80,82,84,86,88,90,92,94,96,98,100,102,104,106,-1,-1,108,110,112,114,116,118,120,122,-1,-1,-1,-1,-1,-1,-1,-1,-1,-1,-1,-1,-1,-1,-1,-1,-1,-1,-1,-1,-1,-1,-1,-1,-1,-1,-1,-1,-1,-1,-1,-1,-1,-1,-1,-1,-1,-1,-1,-1,-1,-1,-1,-1,-1,-1,-1,-1,-1,-1,-1,-1,-1,-1,-1,-1,-1,-1,-1,-1],"split_conditions":[6.54813E0,1.6424999E-1,1.247685E3,6.5950824E2,2.66585E-1,4.1320254E3,2.6455998E-1,1.00710974E3,1.69765E-1,1.802875E3,1.934E3,7.515197E1,3.82E2,1.83674E3,3.9E1,7.9038196E2,6.5128973E2,8.92345E2,3.037154E1,1.9617501E-1,5.823778E0,9.312046E2,3.9E1,1.1E1,1.397E-1,1.14195E3,4.796171E3,2.1413499E-1,2.8535E-1,1.6962949E3,6.9113135E0,1.4563425E1,8.2557324E2,2.2107557E1,2.8803E2,6.265979E3,4.5420914E1,8.4423E2,1.1270736E3,1.9185E-1,1.85E1,1.5E1,2.6353354E1,1.502071E3,3.9E1,3.19105E-1,3.68985E-1,8.8212537E2,1.9383291E3,6.5552E2,6E0,1.0798582E1,2.5E0,6.1793427E0,2.3397572E1,1.4026599E3,1.405845E3,4.5E0,2.1548599E3,2.77625E1,3.08985E-1,5.05E1,2.8418E-1,-3.0138808E-1,-4.528823E0,5.985393E0,-1.8467487E0,-3.0343015E0,-1.2335104E1,-4.350679E0,-1.99543E-1,-2.6780015E-1,4.806986E0,3.097224E0,1.3752375E1,-2.0889974E0,-5.6393123E-3,3.4008234E0,-4.517137E0,2.2389104E0,5.6249323E0,1.7907927E0,-3.4249142E-1,1.1561638E0,3.9759629E0,5.4004316E0,1.1343576E1,-6.2899683E-3,3.7448685E0,-2.2014413E0,4.037679E-1,1.6329398E0,2.3220593E-1,8.911835E0,2.4908679E0,3.0131524E0,5.8053225E-1,9.006785E0,2.3119826E0,3.1703203E0,9.764803E0,1.8832663E1,9.272557E0,-4.07118E0,-1.6058212E1,-6.585553E0,-2.2371332E1,8.146778E0,1.3644278E1,-3.2982883E0,4.5582647E0,-2.5522583E0,2.1289648E1,4.324191E0,2.2296017E1,-5.3870964E0,-1.4728942E1,3.7242517E0,-1.5497168E0,5.0121126E0,-2.9657829E0,3.1915548E1,8.593037E0],"split_indices":[12,4,2,1,3,1,3,0,3,2,2,11,5,2,7,0,1,2,11,3,12,1,8,6,4,2,1,3,4,2,12,11,0,11,2,0,11,2,0,4,8,7,11,0,8,3,3,1,1,2,6,12,6,0,0,2,2,5,2,11,3,7,3,0,0,0,0,0,0,0,0,0,0,0,0,0,0,0,0,0,0,0,0,0,0,0,0,0,0,0,0,0,0,0,0,0,0,0,0,0,0,0,0,0,0,0,0,0,0,0,0,0,0,0,0,0,0,0,0,0,0,0,0],"split_type":[0,0,0,0,0,0,0,0,0,0,0,0,0,0,0,0,0,0,0,0,0,0,0,0,0,0,0,0,0,0,0,0,0,0,0,0,0,0,0,0,0,0,0,0,0,0,0,0,0,0,0,0,0,0,0,0,0,0,0,0,0,0,0,0,0,0,0,0,0,0,0,0,0,0,0,0,0,0,0,0,0,0,0,0,0,0,0,0,0,0,0,0,0,0,0,0,0,0,0,0,0,0,0,0,0,0,0,0,0,0,0,0,0,0,0,0,0,0,0,0,0,0,0],"sum_hessian":[4.7803E4,3.4007E4,1.3796E4,4.879E3,2.9128E4,1.239E4,1.406E3,2.5E2,4.629E3,8.563E3,2.0565E4,1.2175E4,2.15E2,9.57E2,4.49E2,2.37E2,1.3E1,3.653E3,9.76E2,7.316E3,1.247E3,2.966E3,1.7599E4,1.0126E4,2.049E3,2.12E2,3E0,8.43E2,1.14E2,3.82E2,6.7E1,1.74E2,6.3E1,7E0,6E0,3.346E3,3.07E2,7.61E2,2.15E2,1.355E3,5.961E3,7.22E2,5.25E2,6.75E2,2.291E3,1.7329E4,2.7E2,9.715E3,4.11E2,1.941E3,1.08E2,2.03E2,9E0,1E0,2E0,4.43E2,4E2,6.6E1,4.8E1,5.2E1,3.3E2,5.3E1,1.4E1,4.4E1,1.3E2,1.4E1,4.9E1,1E0,6E0,4E0,2E0,3.299E3,4.7E1,2.97E2,1E1,2.4E2,5.21E2,1.6E1,1.99E2,1.01E3,3.45E2,3.15E3,2.811E3,5.58E2,1.64E2,3.82E2,1.43E2,4.05E2,2.7E2,1.795E3,4.96E2,3.658E3,1.3671E4,1.08E2,1.62E2,2.52E3,7.195E3,2.43E2,1.68E2,1.871E3,7E1,2.4E1,8.4E1,1.91E2,1.2E1,2E0,7E0,2.75E2,1.68E2,1.12E2,2.88E2,2E0,6.4E1,3.4E1,1.4E1,2.3E1,2.9E1,1.48E2,1.82E2,3.9E1,1.4E1,6E0,8E0],"tree_param":{"num_deleted":"0","num_feature":"13","num_nodes":"123","size_leaf_vector":"0"}},{"base_weights":[2.3799825E0,1.4180138E0,5.3483152E0,6.045881E-1,2.8760808E0,4.30992E0,1.7121014E1,1.5400633E0,-2.253996E0,1.2176012E1,1.4441078E0,4.7339096E0,-1.7207895E1,1.0736994E1,3.6889866E1,1.0941166E0,7.393852E0,-9.786958E-1,-6.1507053E0,2.8544355E1,9.078835E0,3.2716854E0,-3.6039108E-1,-1.334333E-1,6.3453164E0,5.6172127E-1,-4.8726837E1,4.2610893E1,7.063497E0,7.005545E1,2.9996874E1,3.237764E0,-3.5071948E-1,1.0941613E1,-6.031259E0,-1.243969E0,8.055017E0,2.1613321E1,-6.936005E0,3.1522966E1,1.2806137E-1,5.8493342E0,2.216775E1,1.0934326E1,2.5299819E0,-1.5895797E0,3.718984E0,7.605914E0,-2.8931317E0,1.2074281E1,1.9803141E0,-7.255962E0,3.0416378E1,-2.4955126E1,-6.317085E1,1.02946045E2,3.7692513E1,1.46187935E1,-4.3998256E0,7.484271E1,-1.2339335E1,3.310769E1,-3.7280678E1,1.4970331E0,9.643478E0,-1.2928454E0,6.5150204E0,5.4244075E0,1.9498566E1,-2.6547916E0,-1.6493685E1,-5.6584983E0,-6.839454E-1,2.8691387E0,1.798804E1,2.9243176E1,-2.522474E1,-1.0480562E1,3.1781453E-1,-1.8457901E1,3.305128E1,3.726342E0,-2.1493637E1,7.340665E0,-1.2192967E0,1.1447502E1,3.4153156E1,6.7360015E0,2.7917875E1,1.2990879E0,6.7797456E0,-4.259089E0,-3.9596725E-1,1.3709894E0,2.3109358E1,-9.168315E0,9.977778E0,4.678079E0,-6.6560054E0,1.1524941E1,8.6345505E1,-1.3312511E0,1.1062054E1,-2.6236326E1,2.3349977E0,-1.8631754E1,5.0967216E1,-3.6183537E1,-5.0972157E0,-1.1027057E1,-6.7874374E1,1.1645854E2,2.4448029E1,-1.859396E1,4.138554E1,9.000198E0,6.208882E1,-1.467377E1,6.398274E0,1.4502136E1,7.974035E1,2.1473694E-1,-1.872374E1,1.5266493E1,4.5686447E1,-4.6821808E1,1.9524185E1],"categories":[],"categories_nodes":[],"categories_segments":[],"categories_sizes":[],"default_left":[true,true,true,true,true,true,true,true,true,true,true,true,true,true,true,true,true,true,true,true,true,true,true,true,true,true,true,true,true,true,true,true,true,true,true,true,true,true,true,true,true,true,true,true,true,true,true,true,true,true,true,true,true,true,true,true,true,true,true,true,true,true,true,false,false,false,false,false,false,false,false,false,false,false,false,false,false,false,false,false,false,false,false,false,false,false,false,false,false,false,false,false,false,false,false,false,false,false,false,false,false,false,false,false,false,false,false,false,false,false,false,false,false,false,false,false,false,false,false,false,false,false,false,false,false,false,false],"id":11,"left_children":[1,3,5,7,9,11,13,15,17,19,21,23,25,27,29,31,33,35,37,39,41,43,45,47,49,51,53,55,57,59,61,63,65,67,69,71,73,75,77,79,81,83,85,87,89,91,93,95,97,99,101,103,105,107,109,111,113,115,117,119,121,123,125,-1,-1,-1,-1,-1,-1,-1,-1,-1,-1,-1,-1,-1,-1,-1,-1,-1,-1,-1,-1,-1,-1,-1,-1,-1,-1,-1,-1,-1,-1,-1,-1,-1,-1,-1,-1,-1,-1,-1,-1,-1,-1,-1,-1,-1,-1,-1,-1,-1,-1,-1,-1,-1,-1,-1,-1,-1,-1,-1,-1,-1,-1,-1,-1],"loss_changes":[1.36494E5,4.2819836E4,1.4295544E5,6.198189E4,1.7216116E5,9.818464E4,1.1924597E5,4.5578688E4,2.8394523E4,8.7190875E4,3.695372E4,8.271597E4,1.1652391E5,8.3768695E4,5.07075E4,5.02628E4,5.893554E4,1.033132E4,3.087046E4,2.3187625E4,6.1247305E4,3.1611867E4,2.8281672E4,5.6066086E4,1.981061E5,3.149553E4,2.4175484E4,1.8079281E4,5.5926996E4,1.6306906E4,4.162689E4,7.284375E4,6.2719473E4,4.606608E4,9.105657E3,1.0342456E4,6.284299E3,1.4674986E4,3.5253906E4,1.9553922E4,2.1807178E3,1.2300535E4,3.648467E4,3.482145E4,2.6549021E4,1.3807995E4,5.9428523E4,2.7543957E4,5.5158336E4,1.3878622E5,1.3529106E5,1.9539531E4,2.9173057E4,6.504748E3,1.0533484E4,2.4563398E3,1.532025E4,1.0319327E5,2.860523E4,9.7780625E3,2.444715E2,4.0820234E4,5.792E3,0E0,0E0,0E0,0E0,0E0,0E0,0E0,0E0,0E0,0E0,0E0,0E0,0E0,0E0,0E0,0E0,0E0,0E0,0E0,0E0,0E0,0E0,0E0,0E0,0E0,0E0,0E0,0E0,0E0,0E0,0E0,0E0,0E0,0E0,0E0,0E0,0E0,0E0,0E0,0E0,0E0,0E0,0E0,0E0,0E0,0E0,0E0,0E0,0E0,0E0,0E0,0E0,0E0,0E0,0E0,0E0,0E0,0E0,0E0,0E0,0E0,0E0,0E0,0E0],"parents":[2147483647,0,0,1,1,2,2,3,3,4,4,5,5,6,6,7,7,8,8,9,9,10,10,11,11,12,12,13,13,14,14,15,15,16,16,17,17,18,18,19,19,20,20,21,21,22,22,23,23,24,24,25,25,26,26,27,27,28,28,29,29,30,30,31,31,32,32,33,33,34,34,35,35,36,36,37,37,38,38,39,39,40,40,41,41,42,42,43,43,44,44,45,45,46,46,47,47,48,48,49,49,50,50,51,51,52,52,53,53,54,54,55,55,56,56,57,57,58,58,59,59,60,60,61,61,62,62],"right_children":[2,4,6,8,10,12,14,16,18,20,22,24,26,28,30,32,34,36,38,40,42,44,46,48,50,52,54,56,58,60,62,64,66,68,70,72,74,76,78,80,82,84,86,88,90,92,94,96,98,100,102,104,106,108,110,112,114,116,118,120,122,124,126,-1,-1,-1,-1,-1,-1,-1,-1,-1,-1,-1,-1,-1,-1,-1,-1,-1,-1,-1,-1,-1,-1,-1,-1,-1,-1,-1,-1,-1,-1,-1,-1,-1,-1,-1,-1,-1,-1,-1,-1,-1,-1,-1,-1,-1,-1,-1,-1,-1,-1,-1,-1,-1,-1,-1,-1,-1,-1,-1,-1,-1,-1,-1,-1],"split_conditions":[3.3352173E1,1.35E1,1.418675E3,1.05E1,1.85E1,2.22725E-1,2.75E1,1.05E1,2.1704372E1,8.937213E2,1.85E1,1.35E1,3.5E0,2.1125E-1,9.657267E2,1.6335596E3,2.8960093E3,6.4608393E0,6.5E0,1.5897979E3,2.5864445E1,1.86795E-1,2.5E0,8.855199E2,1.85E1,4.05E1,3.778221E1,1.8695E-1,1.95E1,1.8269985E3,4.0345E-1,1.5076449E3,2.75E1,2.0212294E1,3.9899453E3,1.2742593E3,1.2765E-1,1.304462E3,1.25E1,1.7085001E-1,6.0695806E0,2.974196E3,1.988E-1,1.0399451E3,1.75E1,2.160741E3,3.9E1,7.9933435E2,4.5E0,1.75E1,2.5E0,1.199335E3,3.8820538E1,9.5E0,5.7859173E0,2.4193315E3,1.8975E-1,1.65E1,3.2491821E3,2.2530001E-1,1.9166348E3,1.5E0,8.372E-1,4.4910994E-1,2.8930435E0,-3.8785362E-1,1.9545062E0,1.6273223E0,5.84957E0,-7.964375E-1,-4.948106E0,-1.6975496E0,-2.0518364E-1,8.607417E-1,5.3964124E0,8.772953E0,-7.567422E0,-3.1441689E0,9.5344365E-2,-5.5373707E0,9.915384E0,1.1179026E0,-6.4480915E0,2.2021995E0,-3.6578903E-1,3.4342508E0,1.0245947E1,2.0208006E0,8.375363E0,3.8972637E-1,2.0339239E0,-1.2777268E0,-1.1879018E-1,4.1129684E-1,6.9328074E0,-2.7504945E0,2.9933336E0,1.4034238E0,-1.9968017E0,3.4574826E0,2.5903652E1,-3.9937535E-1,3.3186162E0,-7.8708982E0,7.004993E-1,-5.589526E0,1.5290166E1,-1.0855062E1,-1.5291648E0,-3.3081172E0,-2.0362312E1,3.4937565E1,7.3344088E0,-5.578188E0,1.2415663E1,2.7000597E0,1.8626648E1,-4.402131E0,1.9194822E0,4.3506413E0,2.3922106E1,6.442109E-2,-5.617122E0,4.579948E0,1.3705935E1,-1.4046543E1,5.857256E0],"split_indices":[11,7,2,7,8,3,8,6,11,1,7,8,6,3,1,0,1,12,8,0,11,3,9,1,8,7,11,4,8,0,3,0,8,11,1,0,4,1,7,4,12,1,4,2,7,0,7,0,8,7,9,2,11,6,12,0,4,7,0,4,0,9,4,0,0,0,0,0,0,0,0,0,0,0,0,0,0,0,0,0,0,0,0,0,0,0,0,0,0,0,0,0,0,0,0,0,0,0,0,0,0,0,0,0,0,0,0,0,0,0,0,0,0,0,0,0,0,0,0,0,0,0,0,0,0,0,0],"split_type":[0,0,0,0,0,0,0,0,0,0,0,0,0,0,0,0,0,0,0,0,0,0,0,0,0,0,0,0,0,0,0,0,0,0,0,0,0,0,0,0,0,0,0,0,0,0,0,0,0,0,0,0,0,0,0,0,0,0,0,0,0,0,0,0,0,0,0,0,0,0,0,0,0,0,0,0,0,0,0,0,0,0,0,0,0,0,0,0,0,0,0,0,0,0,0,0,0,0,0,0,0,0,0,0,0,0,0,0,0,0,0,0,0,0,0,0,0,0,0,0,0,0,0,0,0,0,0],"sum_hessian":[4.7803E4,3.6104E4,1.1699E4,2.3176E4,1.2928E4,1.0752E4,9.47E2,1.7462E4,5.714E3,1.724E3,1.1204E4,1.0545E4,2.07E2,7.17E2,2.3E2,1.6227E4,1.235E3,4.306E3,1.408E3,2.73E2,1.451E3,5.566E3,5.638E3,2.623E3,7.922E3,1.33E2,7.4E1,7.3E1,6.44E2,3.8E1,1.92E2,6.533E3,9.694E3,9.77E2,2.58E2,4.184E3,1.22E2,3.8E1,1.37E3,2.47E2,2.6E1,1.165E3,2.86E2,4.9E2,5.076E3,4.333E3,1.305E3,6.89E2,1.934E3,3.425E3,4.497E3,1.06E2,2.7E1,2.9E1,4.5E1,4E0,6.9E1,3.88E2,2.56E2,3.6E1,2E0,1.84E2,8E0,5.138E3,1.395E3,8.525E3,1.169E3,5.95E2,3.82E2,1.96E2,6.2E1,4.7E2,3.714E3,8.1E1,4.1E1,3.3E1,5E0,9.2E2,4.5E2,7E0,2.4E2,2.3E1,3E0,9.62E2,2.03E2,1.52E2,1.34E2,3.94E2,9.6E1,3.937E3,1.139E3,1.338E3,2.995E3,1.165E3,1.4E2,8.5E1,6.04E2,6.42E2,1.292E3,3.401E3,2.4E1,3.296E3,1.201E3,3.5E1,7.1E1,8E0,1.9E1,1.8E1,1.1E1,4E0,4.1E1,3E0,1E0,4E0,6.5E1,3.48E2,4E1,1.31E2,1.25E2,3E0,3.3E1,1E0,1E0,7.7E1,1.07E2,7E0,1E0],"tree_param":{"num_deleted":"0","num_feature":"13","num_nodes":"127","size_leaf_vector":"0"}},{"base_weights":[1.6689504E0,9.527775E-1,4.0116568E0,2.1221395E0,4.9931057E-2,2.826852E0,1.1706631E1,1.0614462E0,4.2640047E0,-3.849073E-1,2.7777169E0,3.2197783E0,-1.2943794E1,2.510323E1,7.673964E0,1.7360164E0,-4.8464993E-1,3.5951178E0,2.7447376E1,-8.15947E-1,1.6378393E0,2.9640007E-1,5.353161E0,2.8127794E0,2.7972462E1,1.3085409E1,-2.291446E1,2.1863457E1,4.795532E1,2.1134802E1,3.6346464E0,-1.3944225E0,2.3885028E0,-3.9934E-1,-2.3413958E1,1.6595417E0,7.7461667E0,4.4175743E1,1.2277337E1,-1.536922E0,8.4698915E-1,6.0050304E1,1.4689792E0,4.4706792E-1,-2.1414341E1,1.4619752E0,8.206815E0,2.2071753E0,1.1374305E1,5.234116E1,2.030089E1,3.98745E1,7.589598E0,-3.7462387E1,-1.6764372E1,2.6081934E0,2.5826416E1,3.3179688E1,7.836407E1,-1.9214805E0,2.8038502E1,-2.0729613E0,1.6642986E1,-1.6328033E0,1.4537566E1,6.400777E-1,3.190179E0,-1.903109E-1,-5.1916647E0,1.0893059E0,-3.1702745E1,2.7516918E0,-7.1185274E0,2.764803E1,5.832208E0,-3.616722E0,4.9543427E1,4.0019383E0,3.353624E1,-2.2192392E0,9.232987E-1,6.7820053E0,-6.328327E-1,7.185144E1,1.2497559E1,4.340538E0,-2.7717632E-1,-1.355511E0,1.7194494E0,-1.762207E0,-2.6107098E1,3.19512E0,-1.3648875E1,1.3490842E1,1.5862366E0,2.5887039E0,-9.62272E0,7.3377275E0,2.8313637E1,3.1167736E1,6.964539E1,3.335714E1,9.141836E0,1.3914291E1,4.4097404E1,-5.195614E0,2.2541597E1,-5.717251E1,-2.2416553E1,2.03537E1,-1.8859734E1,-6.255859E0,5.3250473E1,3.4834534E1,1.5465792E1,2.0826199E1,7.9122604E1,1.8117565E1,-2.5349276E1,9.330607E0,3.4051907E1,1.07160845E1,-1.8286741E1,2.2177134E1,-1.9945004E1],"categories":[],"categories_nodes":[],"categories_segments":[],"categories_sizes":[],"default_left":[true,true,true,true,true,true,true,true,true,true,true,true,true,true,true,true,true,true,true,true,true,true,true,true,true,true,true,true,true,true,true,true,true,true,true,true,true,true,true,true,true,true,true,true,true,true,true,true,true,true,true,true,true,true,true,true,true,true,false,true,true,true,true,false,false,false,false,false,false,false,false,false,false,false,false,false,false,false,false,false,false,false,false,false,false,false,false,false,false,false,false,false,false,false,false,false,false,false,false,false,false,false,false,false,false,false,false,false,false,false,false,false,false,false,false,false,false,false,false,false,false,false,false,false,false],"id":12,"left_children":[1,3,5,7,9,11,13,15,17,19,21,23,25,27,29,31,33,35,37,39,41,43,45,47,49,51,53,55,57,59,61,63,65,67,69,71,73,75,77,79,81,83,85,87,89,91,93,95,97,99,101,103,105,107,109,111,113,115,-1,117,119,121,123,-1,-1,-1,-1,-1,-1,-1,-1,-1,-1,-1,-1,-1,-1,-1,-1,-1,-1,-1,-1,-1,-1,-1,-1,-1,-1,-1,-1,-1,-1,-1,-1,-1,-1,-1,-1,-1,-1,-1,-1,-1,-1,-1,-1,-1,-1,-1,-1,-1,-1,-1,-1,-1,-1,-1,-1,-1,-1,-1,-1,-1,-1],"loss_changes":[8.020092E4,3.8654223E4,1.0200483E5,3.623622E4,2.4509217E4,6.014965E4,8.046522E4,1.112912E4,8.182508E4,1.5540053E4,1.8153803E4,9.52747E4,6.154857E4,2.4493797E4,6.2397305E4,1.5177576E4,6.3323174E3,4.125322E4,3.70156E4,1.7616059E4,3.0794512E4,4.7461416E3,1.5467113E4,4.826183E4,2.7540203E4,9.414403E3,1.4671508E4,2.3130219E4,1.6270867E4,4.2234883E4,6.574265E4,4.89262E3,8.61543E3,3.235619E3,2.4717622E3,3.3612324E4,6.2041906E4,1.813661E4,1.3763936E4,1.7206543E4,3.9034906E4,4.152617E3,1.5660514E4,3.3027751E3,8.762202E2,1.5521481E4,2.8105188E4,3.9287367E4,4.1844047E4,1.1019352E4,1.6887113E4,5.9231836E2,1.0822328E4,1.3546148E4,9.87252E3,2.4124607E4,2.298036E4,1.5378832E4,0E0,2.956645E4,2.2631906E4,1.2792896E5,5.511283E4,0E0,0E0,0E0,0E0,0E0,0E0,0E0,0E0,0E0,0E0,0E0,0E0,0E0,0E0,0E0,0E0,0E0,0E0,0E0,0E0,0E0,0E0,0E0,0E0,0E0,0E0,0E0,0E0,0E0,0E0,0E0,0E0,0E0,0E0,0E0,0E0,0E0,0E0,0E0,0E0,0E0,0E0,0E0,0E0,0E0,0E0,0E0,0E0,0E0,0E0,0E0,0E0,0E0,0E0,0E0,0E0,0E0,0E0,0E0,0E0,0E0,0E0],"parents":[2147483647,0,0,1,1,2,2,3,3,4,4,5,5,6,6,7,7,8,8,9,9,10,10,11,11,12,12,13,13,14,14,15,15,16,16,17,17,18,18,19,19,20,20,21,21,22,22,23,23,24,24,25,25,26,26,27,27,28,28,29,29,30,30,31,31,32,32,33,33,34,34,35,35,36,36,37,37,38,38,39,39,40,40,41,41,42,42,43,43,44,44,45,45,46,46,47,47,48,48,49,49,50,50,51,51,52,52,53,53,54,54,55,55,56,56,57,57,59,59,60,60,61,61,62,62],"right_children":[2,4,6,8,10,12,14,16,18,20,22,24,26,28,30,32,34,36,38,40,42,44,46,48,50,52,54,56,58,60,62,64,66,68,70,72,74,76,78,80,82,84,86,88,90,92,94,96,98,100,102,104,106,108,110,112,114,116,-1,118,120,122,124,-1,-1,-1,-1,-1,-1,-1,-1,-1,-1,-1,-1,-1,-1,-1,-1,-1,-1,-1,-1,-1,-1,-1,-1,-1,-1,-1,-1,-1,-1,-1,-1,-1,-1,-1,-1,-1,-1,-1,-1,-1,-1,-1,-1,-1,-1,-1,-1,-1,-1,-1,-1,-1,-1,-1,-1,-1,-1,-1,-1,-1,-1],"split_conditions":[6.812661E0,1.025E2,1.5215E-1,1.997888E1,3.455E2,1.6615E-1,1.7502E-1,4.0630502E-1,1.005E2,2.75E1,1.6726986E1,9.0077E2,9.583595E2,1.12601E3,9.727068E2,1.34546E3,6.2987566E0,1.695435E3,1.1704553E3,1.35E1,8.955989E2,6.392828E0,2.1035E-1,1.05109726E2,1.3315001E-1,3.1245857E1,7.3319995E2,2.5E0,2.4278242E3,1.45E1,2.75E1,8.980634E3,5.1769238E0,1.5974691E1,1.7E1,2.4633E-1,2.44245E-1,5.731477E0,3.5E0,2.700575E3,1.85E1,6.5215364E0,1.5773235E3,2.447E3,1.3014743E1,2.0733E-1,2.76255E-1,3.6357515E3,9.205E-2,7.3588223E0,9.561034E2,1.6661E-1,4.5876644E1,7.091977E0,6.5E0,1.7374E-1,1.05E1,2.65E1,2.350922E1,3.9906555E1,1.14523E3,1.85E1,9.5E0,-4.89841E-1,4.36127E0,1.9202332E-1,9.570538E-1,-5.709327E-2,-1.5574995E0,3.2679176E-1,-9.510824E0,8.255076E-1,-2.1355584E0,8.294409E0,1.7496625E0,-1.0850167E0,1.4863029E1,1.2005816E0,1.0060872E1,-6.657718E-1,2.7698964E-1,2.0346017E0,-1.8984982E-1,2.1555433E1,3.7492678E0,1.3021615E0,-8.31529E-2,-4.066533E-1,5.1583487E-1,-5.2866215E-1,-7.8321295E0,9.585361E-1,-4.0946627E0,4.0472527E0,4.75871E-1,7.766112E-1,-2.886816E0,2.2013183E0,8.494091E0,9.350321E0,2.089362E1,1.0007142E1,2.7425508E0,4.174288E0,1.3229222E1,-1.5586842E0,6.7624793E0,-1.7151752E1,-6.7249665E0,6.1061106E0,-5.6579204E0,-1.8767577E0,1.59751425E1,1.045036E1,4.6397376E0,6.24786E0,2.3736782E1,5.43527E0,-7.604783E0,2.7991824E0,1.0215572E1,3.2148254E0,-5.4860225E0,6.6531405E0,-5.9835014E0],"split_indices":[12,5,4,11,5,3,3,3,5,8,11,2,1,2,1,2,12,2,1,7,1,12,4,11,4,11,2,7,0,8,8,0,12,11,5,3,3,12,9,2,8,12,1,2,11,3,3,1,4,12,1,3,11,12,8,3,7,8,0,11,2,8,6,0,0,0,0,0,0,0,0,0,0,0,0,0,0,0,0,0,0,0,0,0,0,0,0,0,0,0,0,0,0,0,0,0,0,0,0,0,0,0,0,0,0,0,0,0,0,0,0,0,0,0,0,0,0,0,0,0,0,0,0,0,0],"split_type":[0,0,0,0,0,0,0,0,0,0,0,0,0,0,0,0,0,0,0,0,0,0,0,0,0,0,0,0,0,0,0,0,0,0,0,0,0,0,0,0,0,0,0,0,0,0,0,0,0,0,0,0,0,0,0,0,0,0,0,0,0,0,0,0,0,0,0,0,0,0,0,0,0,0,0,0,0,0,0,0,0,0,0,0,0,0,0,0,0,0,0,0,0,0,0,0,0,0,0,0,0,0,0,0,0,0,0,0,0,0,0,0,0,0,0,0,0,0,0,0,0,0,0,0,0],"sum_hessian":[4.7803E4,3.6612E4,1.1191E4,1.5951E4,2.0661E4,9.699E3,1.492E3,1.0669E4,5.282E3,1.7821E4,2.84E3,9.464E3,2.35E2,3.44E2,1.148E3,7.428E3,3.241E3,5.135E3,1.47E2,1.4691E4,3.13E3,1.447E3,1.393E3,9.312E3,1.52E2,6.5E1,1.7E2,3.03E2,4.1E1,2.64E2,8.84E2,1.281E3,6.147E3,3.23E3,1.1E1,3.503E3,1.632E3,6.9E1,7.8E1,1.0248E4,4.443E3,8E0,3.122E3,1.438E3,9E0,5.9E2,8.03E2,8.698E3,6.14E2,3.5E1,1.17E2,1E1,5.5E1,4.9E1,1.21E2,5.2E1,2.51E2,2.9E1,1.2E1,6.1E1,2.03E2,6.15E2,2.69E2,1.263E3,1.8E1,1.933E3,4.214E3,3.096E3,1.34E2,3E0,8E0,3.116E3,3.87E2,1.42E2,1.49E3,7E0,6.2E1,5.7E1,2.1E1,8.023E3,2.225E3,8.86E2,3.557E3,6E0,2E0,1.18E3,1.942E3,5.95E2,8.43E2,2E0,7E0,5.3E2,6E1,4.46E2,3.57E2,8.427E3,2.71E2,4.97E2,1.17E2,1.7E1,1.8E1,5.3E1,6.4E1,2E0,8E0,3E1,2.5E1,2E1,2.9E1,6E0,1.15E2,4.5E1,7E0,1.33E2,1.18E2,2.4E1,5E0,3.3E1,2.8E1,5E1,1.53E2,3.44E2,2.71E2,2.34E2,3.5E1],"tree_param":{"num_deleted":"0","num_feature":"13","num_nodes":"125","size_leaf_vector":"0"}},{"base_weights":[1.1722775E0,2.394752E0,1.4751792E-1,-3.1974986E-1,7.0337667E0,-4.3316073E0,7.93721E-1,-8.1254184E-1,5.310476E0,1.8854802E0,9.804879E0,-6.4250386E-1,-1.4127374E1,3.5858728E-2,3.7520742E0,1.7902523E0,-2.21941E0,6.767729E0,-1.2987722E1,5.283129E0,3.7212378E-1,1.5005194E1,6.0224047E0,-5.278885E0,1.3880482E0,-2.1742271E1,-4.3946605E0,-1.2269174E0,2.415081E0,2.664678E0,1.956876E1,-1.3251743E1,2.3668833E0,2.8588305E0,-3.3513591E0,1.1474103E0,1.2518809E1,2.2657685E0,-2.0516994E1,1.0503153E1,2.7795417E0,-3.7219805E-1,4.26614E0,1.4139882E1,6.0268555E1,1.366662E1,3.8088408E0,-6.337176E0,7.495974E0,9.431251E0,-1.0932455E0,-6.318237E-1,-2.7110437E1,1.9854603E1,-8.882863E0,-3.440346E0,1.0980481E0,1.0565839E1,-6.7557216E-1,7.5322285E0,6.7412263E-1,6.776473E1,1.7132576E1,-9.479034E0,-2.0974228E1,-8.251304E-1,6.0221767E0,5.2192817E0,-3.6056921E0,-4.2222133E0,4.065517E0,9.266512E0,-7.3884E-2,2.5479979E1,8.210887E0,7.509361E0,-4.362173E0,-8.554522E0,-2.8847694E1,5.1540866E0,1.4695064E1,-1.3679831E0,9.981378E0,-1.3394537E-2,-9.342073E0,-5.897025E0,7.722495E0,1.3016299E1,3.7671097E1,1.1470399E2,1.2679781E1,2.6352852E1,1.1408136E1,2.0818043E0,1.0753131E1,-2.5188584E0,-8.642237E0,2.274791E1,-1.3787769E1,8.67236E0,6.628308E1,-5.163373E-1,-1.0394759E1,-1.5206867E1,1.3405139E1,-1.2520522E1,-3.725796E1,2.575506E0,5.8824375E1,-2.1780195E0,-1.899937E1,-1.2215732E0,-6.685447E0,7.0384655E0,-6.1899656E-1,3.4599965E0,2.4194544E1,7.8727704E-1,-8.172011E0,-1.6440558E0,1.4012565E1,-1.0916832E1,1.4313897E0,1.0572747E2,4.779967E1,-8.563654E0,2.2243023E1],"categories":[],"categories_nodes":[],"categories_segments":[],"categories_sizes":[],"default_left":[true,true,true,true,true,true,true,true,true,true,true,true,true,true,true,true,true,true,true,true,true,true,true,true,true,true,true,true,true,true,true,true,true,true,true,true,true,true,true,true,true,true,true,true,true,true,true,true,true,true,true,true,true,true,true,true,true,true,true,true,true,true,true,false,false,false,false,false,false,false,false,false,false,false,false,false,false,false,false,false,false,false,false,false,false,false,false,false,false,false,false,false,false,false,false,false,false,false,false,false,false,false,false,false,false,false,false,false,false,false,false,false,false,false,false,false,false,false,false,false,false,false,false,false,false,false,false],"id":13,"left_children":[1,3,5,7,9,11,13,